{"learner":{"attributes":{"scikit_learn":"{\"_estimator_type\": \"classifier\"}"},"feature_names":["period","seconds_remaining","home_score","away_score","score_margin","abs_score_margin","total_score","score_margin_per_minute","is_home_leading","is_tied","is_late_game","is_scoring_play"],"feature_types":["int","int","int","int","int","int","int","float","int","int","int","int"],"gradient_booster":{"model":{"cats":{"enc":[],"feature_segments":[],"sorted_idx":[]},"gbtree_model_param":{"num_parallel_tree":"1","num_trees":"250"},"iteration_indptr":[0,1,2,3,4,5,6,7,8,9,10,11,12,13,14,15,16,17,18,19,20,21,22,23,24,25,26,27,28,29,30,31,32,33,34,35,36,37,38,39,40,41,42,43,44,45,46,47,48,49,50,51,52,53,54,55,56,57,58,59,60,61,62,63,64,65,66,67,68,69,70,71,72,73,74,75,76,77,78,79,80,81,82,83,84,85,86,87,88,89,90,91,92,93,94,95,96,97,98,99,100,101,102,103,104,105,106,107,108,109,110,111,112,113,114,115,116,117,118,119,120,121,122,123,124,125,126,127,128,129,130,131,132,133,134,135,136,137,138,139,140,141,142,143,144,145,146,147,148,149,150,151,152,153,154,155,156,157,158,159,160,161,162,163,164,165,166,167,168,169,170,171,172,173,174,175,176,177,178,179,180,181,182,183,184,185,186,187,188,189,190,191,192,193,194,195,196,197,198,199,200,201,202,203,204,205,206,207,208,209,210,211,212,213,214,215,216,217,218,219,220,221,222,223,224,225,226,227,228,229,230,231,232,233,234,235,236,237,238,239,240,241,242,243,244,245,246,247,248,249,250],"tree_info":[0,0,0,0,0,0,0,0,0,0,0,0,0,0,0,0,0,0,0,0,0,0,0,0,0,0,0,0,0,0,0,0,0,0,0,0,0,0,0,0,0,0,0,0,0,0,0,0,0,0,0,0,0,0,0,0,0,0,0,0,0,0,0,0,0,0,0,0,0,0,0,0,0,0,0,0,0,0,0,0,0,0,0,0,0,0,0,0,0,0,0,0,0,0,0,0,0,0,0,0,0,0,0,0,0,0,0,0,0,0,0,0,0,0,0,0,0,0,0,0,0,0,0,0,0,0,0,0,0,0,0,0,0,0,0,0,0,0,0,0,0,0,0,0,0,0,0,0,0,0,0,0,0,0,0,0,0,0,0,0,0,0,0,0,0,0,0,0,0,0,0,0,0,0,0,0,0,0,0,0,0,0,0,0,0,0,0,0,0,0,0,0,0,0,0,0,0,0,0,0,0,0,0,0,0,0,0,0,0,0,0,0,0,0,0,0,0,0,0,0,0,0,0,0,0,0,0,0,0,0,0,0,0,0,0,0,0,0,0,0,0,0,0,0,0,0,0,0,0,0],"trees":[{"base_weights":[4.840219E-5,-1.0945492E0,8.2484335E-1,-1.7298797E0,-5.651861E-1,3.2536379E-1,1.5000578E0,-1.94965E0,-1.39945E0,-7.9817677E-1,-3.1595683E-1,1.4737605E-1,6.292943E-1,1.1581683E0,1.7315791E0,-1.02180004E-1,-8.310039E-2,-7.7764995E-2,-5.7401653E-2,-4.6996567E-2,-3.327052E-2,-1.9704383E-2,-9.414812E-3,9.09091E-4,1.3932237E-2,2.6491478E-2,4.3566003E-2,4.541699E-2,6.680405E-2,6.943099E-2,9.02397E-2],"categories":[],"categories_nodes":[],"categories_segments":[],"categories_sizes":[],"default_left":[0,0,0,0,0,0,0,0,0,0,0,0,0,0,0,0,0,0,0,0,0,0,0,0,0,0,0,0,0,0,0],"id":0,"left_children":[1,3,5,7,9,11,13,15,17,19,21,23,25,27,29,-1,-1,-1,-1,-1,-1,-1,-1,-1,-1,-1,-1,-1,-1,-1,-1],"loss_changes":[1.8093497E5,2.896296E4,3.8544875E4,2.8396953E3,2.7277432E3,3.5537847E3,3.8446172E3,6.3178906E2,6.1097266E2,4.5633008E2,2.2634326E2,7.026738E2,5.836299E2,8.7104297E2,7.250078E2,0E0,0E0,0E0,0E0,0E0,0E0,0E0,0E0,0E0,0E0,0E0,0E0,0E0,0E0,0E0,0E0],"parents":[2147483647,0,0,1,1,2,2,3,3,4,4,5,5,6,6,7,7,8,8,9,9,10,10,11,11,12,12,13,13,14,14],"right_children":[2,4,6,8,10,12,14,16,18,20,22,24,26,28,30,-1,-1,-1,-1,-1,-1,-1,-1,-1,-1,-1,-1,-1,-1,-1,-1],"split_conditions":[-2.8449502E-2,-4.0201005E-1,3.7656903E-1,-8.1678957E-1,-1.4888337E-1,1.5228426E-1,8E-1,-1E1,-9E0,-2.5210086E-1,-6.779661E-2,2E0,9E0,1.1E1,1E1,-1.02180004E-1,-8.310039E-2,-7.7764995E-2,-5.7401653E-2,-4.6996567E-2,-3.327052E-2,-1.9704383E-2,-9.414812E-3,9.09091E-4,1.3932237E-2,2.6491478E-2,4.3566003E-2,4.541699E-2,6.680405E-2,6.943099E-2,9.02397E-2],"split_indices":[7,7,7,7,7,7,7,4,4,7,7,4,4,4,4,0,0,0,0,0,0,0,0,0,0,0,0,0,0,0,0],"split_type":[0,0,0,0,0,0,0,0,0,0,0,0,0,0,0,0,0,0,0,0,0,0,0,0,0,0,0,0,0,0,0],"sum_hessian":[2.004092E5,8.611903E4,1.1429017E5,3.91408E4,4.697823E4,6.5694875E4,4.85953E4,2.3503566E4,1.5637234E4,2.4278963E4,2.2699268E4,4.1432605E4,2.426227E4,1.9623348E4,2.8971953E4,1.7712266E4,5.791301E3,9.650092E3,5.987143E3,1.1739076E4,1.2539887E4,1.4079965E4,8.619304E3,2.0881871E4,2.0550734E4,1.7197744E4,7.064525E3,8.1645806E3,1.1458768E4,5.100371E3,2.3871582E4],"tree_param":{"num_deleted":"0","num_feature":"12","num_nodes":"31","size_leaf_vector":"1"}},{"base_weights":[-6.500525E-4,-1.0375942E0,7.858138E-1,-1.6383476E0,-5.362238E-1,3.1469446E-1,1.4441959E0,-1.8745619E0,-1.3602976E0,-7.5594103E-1,-3.0088052E-1,1.7141534E-1,6.772549E-1,1.1820426E0,1.7154038E0,-9.681212E-2,-7.670843E-2,-7.6848604E-2,-5.706959E-2,-4.4560377E-2,-3.1484038E-2,-1.8863583E-2,-8.800183E-3,2.8304583E-3,1.7035477E-2,2.832583E-2,4.2071756E-2,4.889896E-2,7.0521735E-2,6.287325E-2,8.747309E-2],"categories":[],"categories_nodes":[],"categories_segments":[],"categories_sizes":[],"default_left":[0,0,0,0,0,0,0,0,0,0,0,0,0,0,0,0,0,0,0,0,0,0,0,0,0,0,0,0,0,0,0],"id":1,"left_children":[1,3,5,7,9,11,13,15,17,19,21,23,25,27,29,-1,-1,-1,-1,-1,-1,-1,-1,-1,-1,-1,-1,-1,-1,-1,-1],"loss_changes":[1.633367E5,2.6018656E4,3.5328438E4,2.5785E3,2.4347236E3,3.4488105E3,3.3756719E3,4.4307812E2,6.964844E2,4.1535254E2,2.1684155E2,9.249088E2,3.4142578E2,1.1246445E3,3.6195312E2,0E0,0E0,0E0,0E0,0E0,0E0,0E0,0E0,0E0,0E0,0E0,0E0,0E0,0E0,0E0,0E0],"parents":[2147483647,0,0,1,1,2,2,3,3,4,4,5,5,6,6,7,7,8,8,9,9,10,10,11,11,12,12,13,13,14,14],"right_children":[2,4,6,8,10,12,14,16,18,20,22,24,26,28,30,-1,-1,-1,-1,-1,-1,-1,-1,-1,-1,-1,-1,-1,-1,-1,-1],"split_conditions":[-2.8449502E-2,-4.0201005E-1,3.8793105E-1,-9.263658E-1,-1.4888337E-1,1.9543974E-1,1.0452962E0,-8E0,-1E1,-2.5210086E-1,-6.779661E-2,3E0,9E0,1.3E1,7E0,-9.681212E-2,-7.670843E-2,-7.6848604E-2,-5.706959E-2,-4.4560377E-2,-3.1484038E-2,-1.8863583E-2,-8.800183E-3,2.8304583E-3,1.7035477E-2,2.832583E-2,4.2071756E-2,4.889896E-2,7.0521735E-2,6.287325E-2,8.747309E-2],"split_indices":[7,7,7,7,7,7,7,4,4,7,7,4,4,4,4,0,0,0,0,0,0,0,0,0,0,0,0,0,0,0,0],"split_type":[0,0,0,0,0,0,0,0,0,0,0,0,0,0,0,0,0,0,0,0,0,0,0,0,0,0,0,0,0,0,0],"sum_hessian":[2.0028356E5,8.638524E4,1.1389833E5,3.929673E4,4.708851E4,6.639176E4,4.7506566E4,2.1243672E4,1.8053059E4,2.4351586E4,2.2736924E4,4.758734E4,1.880442E4,2.4159252E4,2.3347312E4,1.7980797E4,3.2628757E3,9.98685E3,8.06621E3,1.1753569E4,1.2598017E4,1.4105885E4,8.631039E3,2.8357889E4,1.9229453E4,1.1232575E4,7.5718433E3,1.276198E4,1.1397271E4,1.618819E3,2.1728494E4],"tree_param":{"num_deleted":"0","num_feature":"12","num_nodes":"31","size_leaf_vector":"1"}},{"base_weights":[5.7952706E-4,-9.844016E-1,7.4986756E-1,-1.5561247E0,-5.0785464E-1,2.9296076E-1,1.3742204E0,-1.757588E0,-1.2546221E0,-7.168148E-1,-2.8472614E-1,1.0282217E-1,5.274037E-1,1.0560817E0,1.5910592E0,-9.219887E-2,-7.467632E-2,-6.8941616E-2,-4.889621E-2,-4.2192027E-2,-2.9883245E-2,-1.7910635E-2,-8.229288E-3,5.8963464E-4,1.1687399E-2,1.8029124E-2,3.4525998E-2,4.1228574E-2,6.1048705E-2,6.3377015E-2,8.3021946E-2],"categories":[],"categories_nodes":[],"categories_segments":[],"categories_sizes":[],"default_left":[0,0,0,0,0,0,0,0,0,0,0,0,0,0,0,0,0,0,0,0,0,0,0,0,0,0,0,0,0,0,0],"id":2,"left_children":[1,3,5,7,9,11,13,15,17,19,21,23,25,27,29,-1,-1,-1,-1,-1,-1,-1,-1,-1,-1,-1,-1,-1,-1,-1,-1],"loss_changes":[1.4743731E5,2.3514719E4,3.2366402E4,2.3810938E3,2.194662E3,2.9204512E3,3.3057344E3,5.3372656E2,5.38916E2,3.674082E2,2.0094666E2,4.3116757E2,7.981216E2,7.4094727E2,6.378125E2,0E0,0E0,0E0,0E0,0E0,0E0,0E0,0E0,0E0,0E0,0E0,0E0,0E0,0E0,0E0,0E0],"parents":[2147483647,0,0,1,1,2,2,3,3,4,4,5,5,6,6,7,7,8,8,9,9,10,10,11,11,12,12,13,13,14,14],"right_children":[2,4,6,8,10,12,14,16,18,20,22,24,26,28,30,-1,-1,-1,-1,-1,-1,-1,-1,-1,-1,-1,-1,-1,-1,-1,-1],"split_conditions":[-2.8449502E-2,-4.0201005E-1,3.7656903E-1,-8.1678957E-1,-1.4888337E-1,4E0,8E-1,-1E1,-8E0,-2.5210086E-1,-6.779661E-2,2E0,2.0761245E-1,1.1E1,1E1,-9.219887E-2,-7.467632E-2,-6.8941616E-2,-4.889621E-2,-4.2192027E-2,-2.9883245E-2,-1.7910635E-2,-8.229288E-3,5.8963464E-4,1.1687399E-2,1.8029124E-2,3.4525998E-2,4.1228574E-2,6.1048705E-2,6.3377015E-2,8.3021946E-2],"split_indices":[7,7,7,7,7,4,7,4,4,7,7,4,7,4,4,0,0,0,0,0,0,0,0,0,0,0,0,0,0,0,0],"split_type":[0,0,0,0,0,0,0,0,0,0,0,0,0,0,0,0,0,0,0,0,0,0,0,0,0,0,0,0,0,0,0],"sum_hessian":[1.9976819E5,8.630937E4,1.1345881E5,3.923549E4,4.7073883E4,6.5515484E4,4.7943332E4,2.3516791E4,1.5718696E4,2.430758E4,2.27663E4,3.617675E4,2.9338732E4,1.943493E4,2.8508404E4,1.7715188E4,5.801605E3,1.0845949E4,4.8727476E3,1.1762017E4,1.2545564E4,1.4124657E4,8.641645E3,2.1340393E4,1.4836358E4,1.4506227E4,1.4832506E4,8.086882E3,1.1348048E4,5.037539E3,2.3470865E4],"tree_param":{"num_deleted":"0","num_feature":"12","num_nodes":"31","size_leaf_vector":"1"}},{"base_weights":[2.3762058E-3,-9.0140426E-1,7.401988E-1,-1.4462297E0,-5.092954E-1,3.3589193E-1,1.3209797E0,-1.0527747E0,-1.6320701E0,-3.9374825E-1,-1.0115923E0,1.3345203E-1,5.680519E-1,1.0625788E0,1.5494506E0,-6.627419E-2,-4.074088E-2,-8.736378E-2,-6.9591485E-2,-3.120927E-2,-1.161332E-2,-6.097406E-2,-3.4658026E-2,1.55061E-3,1.2465323E-2,2.227578E-2,5.328526E-2,4.445529E-2,6.8848364E-2,6.8730704E-2,8.243955E-2],"categories":[],"categories_nodes":[],"categories_segments":[],"categories_sizes":[],"default_left":[0,0,0,0,0,0,0,0,0,0,0,0,0,0,0,0,0,0,0,0,0,0,0,0,0,0,0,0,0,0,0],"id":3,"left_children":[1,3,5,7,9,11,13,15,17,19,21,23,25,27,29,-1,-1,-1,-1,-1,-1,-1,-1,-1,-1,-1,-1,-1,-1,-1,-1],"loss_changes":[1.3274478E5,1.9113219E4,2.573436E4,2.7361406E3,3.0193262E3,3.0368003E3,2.6539062E3,7.7860254E2,7.013906E2,1.5739185E3,6.432451E2,4.0966724E2,1.8349541E3,1.1501348E3,4.1232812E2,0E0,0E0,0E0,0E0,0E0,0E0,0E0,0E0,0E0,0E0,0E0,0E0,0E0,0E0,0E0,0E0],"parents":[2147483647,0,0,1,1,2,2,3,3,4,4,5,5,6,6,7,7,8,8,9,9,10,10,11,11,12,12,13,13,14,14],"right_children":[2,4,6,8,10,12,14,16,18,20,22,24,26,28,30,-1,-1,-1,-1,-1,-1,-1,-1,-1,-1,-1,-1,-1,-1,-1,-1],"split_conditions":[0E0,-8E0,9E0,1.09E2,4E0,4E0,7.8E1,-1.2E1,-1.2E1,-4E0,-3E0,2E0,4E0,1.5E1,1.5E1,-6.627419E-2,-4.074088E-2,-8.736378E-2,-6.9591485E-2,-3.120927E-2,-1.161332E-2,-6.097406E-2,-3.4658026E-2,1.55061E-3,1.2465323E-2,2.227578E-2,5.328526E-2,4.445529E-2,6.8848364E-2,6.8730704E-2,8.243955E-2],"split_indices":[4,4,4,6,0,4,2,4,4,4,4,4,0,4,4,0,0,0,0,0,0,0,0,0,0,0,0,0,0,0,0],"split_type":[0,0,0,0,0,0,0,0,0,0,0,0,0,0,0,0,0,0,0,0,0,0,0,0,0,0,0,0,0,0,0],"sum_hessian":[1.9906652E5,8.947084E4,1.0959567E5,3.7442598E4,5.2028246E4,6.4615555E4,4.4980117E4,1.2013875E4,2.5428725E4,4.2299547E4,9.728697E3,3.451798E4,3.0097576E4,2.111015E4,2.3869967E4,5.5960215E3,6.4178535E3,1.718264E4,8.246083E3,1.7427447E4,2.48721E4,5.8842935E3,3.8444045E3,1.8320262E4,1.6197719E4,2.4152455E4,5.94512E3,1.3606305E4,7.5038457E3,8.653992E3,1.5215975E4],"tree_param":{"num_deleted":"0","num_feature":"12","num_nodes":"31","size_leaf_vector":"1"}},{"base_weights":[7.80603E-4,-8.921136E-1,6.8525195E-1,-1.4191518E0,-4.5811927E-1,2.5833338E-1,1.2632998E0,-1.635982E0,-1.16682E0,-7.043277E-1,-3.049063E-1,1.2045597E-1,5.169689E-1,1.0033425E0,1.5196055E0,-8.45828E-2,-6.6713296E-2,-6.6214584E-2,-4.86976E-2,-4.382166E-2,-3.2821875E-2,-2.1197658E-2,-1.0818143E-2,-1.5063E-3,9.812318E-3,2.1772297E-2,3.5749614E-2,4.1552424E-2,6.091069E-2,5.3308744E-2,7.777839E-2],"categories":[],"categories_nodes":[],"categories_segments":[],"categories_sizes":[],"default_left":[0,0,0,0,0,0,0,0,0,0,0,0,0,0,0,0,0,0,0,0,0,0,0,0,0,0,0,0,0,0,0],"id":4,"left_children":[1,3,5,7,9,11,13,15,17,19,21,23,25,27,29,-1,-1,-1,-1,-1,-1,-1,-1,-1,-1,-1,-1,-1,-1,-1,-1],"loss_changes":[1.2113263E5,1.9671648E4,2.768709E4,2.1231016E3,1.7790674E3,2.3012505E3,3.1740703E3,3.4858594E2,5.4398047E2,1.4854297E2,3.0640015E2,4.804309E2,3.6194873E2,8.750879E2,3.8964844E2,0E0,0E0,0E0,0E0,0E0,0E0,0E0,0E0,0E0,0E0,0E0,0E0,0E0,0E0,0E0,0E0],"parents":[2147483647,0,0,1,1,2,2,3,3,4,4,5,5,6,6,7,7,8,8,9,9,10,10,11,11,12,12,13,13,14,14],"right_children":[2,4,6,8,10,12,14,16,18,20,22,24,26,28,30,-1,-1,-1,-1,-1,-1,-1,-1,-1,-1,-1,-1,-1,-1,-1,-1],"split_conditions":[-2.8449502E-2,-4.0201005E-1,3.652968E-1,-9.263658E-1,-1.9512194E-1,1.5665796E-1,9.661836E-1,-8E0,-1E1,-3.4416825E-1,-3E0,2.20022E-2,9E0,1.3E1,7E0,-8.45828E-2,-6.6713296E-2,-6.6214584E-2,-4.86976E-2,-4.382166E-2,-3.2821875E-2,-2.1197658E-2,-1.0818143E-2,-1.5063E-3,9.812318E-3,2.1772297E-2,3.5749614E-2,4.1552424E-2,6.091069E-2,5.3308744E-2,7.777839E-2],"split_indices":[7,7,7,7,7,7,7,4,4,7,4,7,4,4,4,0,0,0,0,0,0,0,0,0,0,0,0,0,0,0,0],"split_type":[0,0,0,0,0,0,0,0,0,0,0,0,0,0,0,0,0,0,0,0,0,0,0,0,0,0,0,0,0,0,0],"sum_hessian":[1.9819902E5,8.600501E4,1.1219401E5,3.8838125E4,4.7166883E4,6.4533848E4,4.7660164E4,2.0885553E4,1.7952572E4,1.8091236E4,2.9075646E4,4.2094777E4,2.2439068E4,2.3663967E4,2.3996197E4,1.7628129E4,3.257424E3,9.879979E3,8.0725947E3,3.93446E3,1.4156776E4,1.2400016E4,1.667563E4,1.4093704E4,2.8001074E4,1.58975205E4,6.541548E3,1.3135868E4,1.05281E4,1.7655737E3,2.2230623E4],"tree_param":{"num_deleted":"0","num_feature":"12","num_nodes":"31","size_leaf_vector":"1"}},{"base_weights":[9.989981E-4,-9.261549E-1,6.055345E-1,-1.4193286E0,-5.46661E-1,2.0173113E-1,1.2103491E0,-1.6331667E0,-1.2425629E0,-7.473595E-1,-3.6100006E-1,1.3976952E-2,4.0274873E-1,8.692581E-1,1.4068372E0,-8.321627E-2,-6.779494E-2,-6.930975E-2,-5.1125165E-2,-4.5000445E-2,-3.2118637E-2,-2.340917E-2,-1.5204707E-2,-3.1062681E-3,6.231667E-3,1.4444481E-2,2.8582081E-2,3.087548E-2,4.902105E-2,4.5382433E-2,7.273556E-2],"categories":[],"categories_nodes":[],"categories_segments":[],"categories_sizes":[],"default_left":[0,0,0,0,0,0,0,0,0,0,0,0,0,0,0,0,0,0,0,0,0,0,0,0,0,0,0,0,0,0,0],"id":5,"left_children":[1,3,5,7,9,11,13,15,17,19,21,23,25,27,29,-1,-1,-1,-1,-1,-1,-1,-1,-1,-1,-1,-1,-1,-1,-1,-1],"loss_changes":[1.1050393E5,1.4562531E4,2.9145645E4,1.2770156E3,1.6383838E3,2.7009153E3,3.2008672E3,1.3001172E2,5.842363E2,3.3808105E2,1.392041E2,3.1161954E2,6.6443604E2,4.8817383E2,7.2310547E2,0E0,0E0,0E0,0E0,0E0,0E0,0E0,0E0,0E0,0E0,0E0,0E0,0E0,0E0,0E0,0E0],"parents":[2147483647,0,0,1,1,2,2,3,3,4,4,5,5,6,6,7,7,8,8,9,9,10,10,11,11,12,12,13,13,14,14],"right_children":[2,4,6,8,10,12,14,16,18,20,22,24,26,28,30,-1,-1,-1,-1,-1,-1,-1,-1,-1,-1,-1,-1,-1,-1,-1,-1],"split_conditions":[-6.514658E-2,-4.8894063E-1,3.5502958E-1,-1.3043479E0,-2.0833333E-1,3E0,6.9970846E-1,-7E0,-1E1,-3.4416825E-1,-1.4888337E-1,2.20022E-2,2.0761245E-1,9E0,7E0,-8.321627E-2,-6.779494E-2,-6.930975E-2,-5.1125165E-2,-4.5000445E-2,-3.2118637E-2,-2.340917E-2,-1.5204707E-2,-3.1062681E-3,6.231667E-3,1.4444481E-2,2.8582081E-2,3.087548E-2,4.902105E-2,4.5382433E-2,7.273556E-2],"split_indices":[7,7,7,7,7,4,7,4,4,7,7,7,7,4,4,0,0,0,0,0,0,0,0,0,0,0,0,0,0,0,0],"split_type":[0,0,0,0,0,0,0,0,0,0,0,0,0,0,0,0,0,0,0,0,0,0,0,0,0,0,0,0,0,0,0],"sum_hessian":[1.9715131E5,7.781254E4,1.1933877E5,3.3836875E4,4.3975664E4,7.1561914E4,4.7776855E4,1.5308975E4,1.85279E4,2.1130588E4,2.2845078E4,3.7002223E4,3.455969E4,1.746469E4,3.0312164E4,1.3757887E4,1.5510876E3,1.1207507E4,7.3203945E3,8.607636E3,1.2522951E4,7.9201353E3,1.4924943E4,2.1924445E4,1.5077779E4,2.0644746E4,1.3914946E4,5.3515923E3,1.2113097E4,2.6543936E3,2.7657771E4],"tree_param":{"num_deleted":"0","num_feature":"12","num_nodes":"31","size_leaf_vector":"1"}},{"base_weights":[1.6213808E-4,-8.151083E-1,6.281735E-1,-1.3094996E0,-4.1554663E-1,2.818613E-1,1.2528192E0,-1.5186259E0,-1.068618E0,-6.4266044E-1,-2.743566E-1,1.3890383E-1,5.971567E-1,1.0351918E0,1.4610522E0,-7.947295E-2,-6.43961E-2,-6.337861E-2,-4.6462845E-2,-3.8938906E-2,-2.960488E-2,-1.9124702E-2,-9.70043E-3,2.1814778E-3,1.3519849E-2,1.7712787E-2,3.317009E-2,3.9581854E-2,6.0661417E-2,4.9020972E-2,7.4203275E-2],"categories":[],"categories_nodes":[],"categories_segments":[],"categories_sizes":[],"default_left":[0,0,0,0,0,0,0,0,0,0,0,0,0,0,0,0,0,0,0,0,0,0,0,0,0,0,0,0,0,0,0],"id":6,"left_children":[1,3,5,7,9,11,13,15,17,19,21,23,25,27,29,-1,-1,-1,-1,-1,-1,-1,-1,-1,-1,-1,-1,-1,-1,-1,-1],"loss_changes":[1.0027148E5,1.6833137E4,2.3930617E4,1.9170508E3,1.5110918E3,3.2078442E3,1.7865586E3,3.3108203E2,4.896797E2,1.2388135E2,2.5245337E2,6.1347144E2,3.570205E2,8.3577344E2,2.2155078E2,0E0,0E0,0E0,0E0,0E0,0E0,0E0,0E0,0E0,0E0,0E0,0E0,0E0,0E0,0E0,0E0],"parents":[2147483647,0,0,1,1,2,2,3,3,4,4,5,5,6,6,7,7,8,8,9,9,10,10,11,11,12,12,13,13,14,14],"right_children":[2,4,6,8,10,12,14,16,18,20,22,24,26,28,30,-1,-1,-1,-1,-1,-1,-1,-1,-1,-1,-1,-1,-1,-1,-1,-1],"split_conditions":[-2.8449502E-2,-4.0201005E-1,4.7058824E-1,-9.263658E-1,-1.9512194E-1,2.0761245E-1,1.1374408E0,-1E1,-1.2E1,-9E0,-3E0,3E0,6E0,1.2E1,6E0,-7.947295E-2,-6.43961E-2,-6.337861E-2,-4.6462845E-2,-3.8938906E-2,-2.960488E-2,-1.9124702E-2,-9.70043E-3,2.1814778E-3,1.3519849E-2,1.7712787E-2,3.317009E-2,3.9581854E-2,6.0661417E-2,4.9020972E-2,7.4203275E-2],"split_indices":[7,7,7,7,7,7,7,4,4,4,4,4,4,4,4,0,0,0,0,0,0,0,0,0,0,0,0,0,0,0,0],"split_type":[0,0,0,0,0,0,0,0,0,0,0,0,0,0,0,0,0,0,0,0,0,0,0,0,0,0,0,0,0,0,0],"sum_hessian":[1.9584106E5,8.5215664E4,1.106254E5,3.8087023E4,4.7128645E4,7.116951E4,3.9455895E4,2.0384492E4,1.7702531E4,1.80655E4,2.9063145E4,4.8968316E4,2.2201191E4,1.929567E4,2.0160225E4,1.5591524E4,4.7929673E3,7.288818E3,1.0413714E4,4.8891777E3,1.3176322E4,1.2387501E4,1.6675643E4,2.8395494E4,2.0572822E4,4.758722E3,1.7442469E4,8.1507954E3,1.1144875E4,9.231796E2,1.9237045E4],"tree_param":{"num_deleted":"0","num_feature":"12","num_nodes":"31","size_leaf_vector":"1"}},{"base_weights":[9.2469936E-4,-6.769853E-1,6.899133E-1,-1.2277367E0,-3.5557526E-1,3.6322373E-1,1.19344E0,-8.5818756E-1,-1.4060551E0,-5.7639027E-1,-1.6473596E-1,2.2484545E-1,6.157354E-1,9.607749E-1,1.3876836E0,-5.426606E-2,-3.420635E-2,-7.6149985E-2,-6.0765244E-2,-5.2653212E-2,-2.33593E-2,-2.2232639E-2,-4.871481E-3,6.0272207E-3,1.5322854E-2,5.5595305E-2,2.4746057E-2,4.1524537E-2,6.494326E-2,6.1021376E-2,7.332343E-2],"categories":[],"categories_nodes":[],"categories_segments":[],"categories_sizes":[],"default_left":[0,0,0,0,0,0,0,0,0,0,0,0,0,0,0,0,0,0,0,0,0,0,0,0,0,0,0,0,0,0,0],"id":7,"left_children":[1,3,5,7,9,11,13,15,17,19,21,23,25,27,29,-1,-1,-1,-1,-1,-1,-1,-1,-1,-1,-1,-1,-1,-1,-1,-1],"loss_changes":[9.084819E4,1.73545E4,1.5867695E4,2.3796562E3,2.6088975E3,2.044231E3,1.7141406E3,4.6426855E2,5.4175E2,1.4935635E3,6.256704E2,3.2169592E2,1.2409902E3,7.5981836E2,2.7078125E2,0E0,0E0,0E0,0E0,0E0,0E0,0E0,0E0,0E0,0E0,0E0,0E0,0E0,0E0,0E0,0E0],"parents":[2147483647,0,0,1,1,2,2,3,3,4,4,5,5,6,6,7,7,8,8,9,9,10,10,11,11,12,12,13,13,14,14],"right_children":[2,4,6,8,10,12,14,16,18,20,22,24,26,28,30,-1,-1,-1,-1,-1,-1,-1,-1,-1,-1,-1,-1,-1,-1,-1,-1],"split_conditions":[1E0,-8E0,1E1,6.2E1,-3E0,6E0,7.8E1,-1.2E1,-1.3E1,6.81E2,9.16E2,3E0,6.94E2,1.7E1,1.5E1,-5.426606E-2,-3.420635E-2,-7.6149985E-2,-6.0765244E-2,-5.2653212E-2,-2.33593E-2,-2.2232639E-2,-4.871481E-3,6.0272207E-3,1.5322854E-2,5.5595305E-2,2.4746057E-2,4.1524537E-2,6.494326E-2,6.1021376E-2,7.332343E-2],"split_indices":[4,4,4,3,4,4,2,4,4,1,1,4,1,4,4,0,0,0,0,0,0,0,0,0,0,0,0,0,0,0,0],"split_type":[0,0,0,0,0,0,0,0,0,0,0,0,0,0,0,0,0,0,0,0,0,0,0,0,0,0,0,0,0,0,0],"sum_hessian":[1.9450364E5,9.804005E4,9.64636E4,3.6128805E4,6.1911242E4,5.8506285E4,3.7957316E4,1.1760993E4,2.436781E4,2.8700568E4,3.321067E4,3.7795797E4,2.0710488E4,1.7273305E4,2.0684014E4,5.100308E3,6.6606846E3,1.5102086E4,9.265725E3,5.348007E3,2.335256E4,6.436529E3,2.6774145E4,1.6592621E4,2.1203176E4,4.0537979E3,1.665669E4,1.2471015E4,4.80229E3,6.628517E3,1.4055496E4],"tree_param":{"num_deleted":"0","num_feature":"12","num_nodes":"31","size_leaf_vector":"1"}},{"base_weights":[3.380927E-5,-7.4537337E-1,5.7515484E-1,-1.2150779E0,-3.7485352E-1,2.666467E-1,1.2032285E0,-1.3999044E0,-9.4715863E-1,-5.3229445E-1,-2.074816E-1,1.1892122E-1,5.524628E-1,1.0009521E0,1.3905524E0,-7.3970005E-2,-5.823457E-2,-5.4531466E-2,-3.9057072E-2,-3.154237E-2,-2.2046082E-2,-1.3027394E-2,-6.033751E-3,1.8522171E-3,1.1804659E-2,2.2427477E-2,3.6521338E-2,4.1940775E-2,6.1944384E-2,4.691129E-2,7.060673E-2],"categories":[],"categories_nodes":[],"categories_segments":[],"categories_sizes":[],"default_left":[0,0,0,0,0,0,0,0,0,0,0,0,0,0,0,0,0,0,0,0,0,0,0,0,0,0,0,0,0,0,0],"id":8,"left_children":[1,3,5,7,9,11,13,15,17,19,21,23,25,27,29,-1,-1,-1,-1,-1,-1,-1,-1,-1,-1,-1,-1,-1,-1,-1,-1],"loss_changes":[8.278821E4,1.463693E4,2.1121855E4,1.8352383E3,1.2388872E3,3.086505E3,1.359168E3,4.086211E2,3.5985352E2,2.1789111E2,1.0496069E2,4.6235767E2,4.6030762E2,6.6512695E2,1.8064453E2,0E0,0E0,0E0,0E0,0E0,0E0,0E0,0E0,0E0,0E0,0E0,0E0,0E0,0E0,0E0,0E0],"parents":[2147483647,0,0,1,1,2,2,3,3,4,4,5,5,6,6,7,7,8,8,9,9,10,10,11,11,12,12,13,13,14,14],"right_children":[2,4,6,8,10,12,14,16,18,20,22,24,26,28,30,-1,-1,-1,-1,-1,-1,-1,-1,-1,-1,-1,-1,-1,-1,-1,-1],"split_conditions":[-2.8449502E-2,-4.0201005E-1,5.1391864E-1,-8.1678957E-1,-1.4888337E-1,2.0134228E-1,1.1864407E0,-1E1,-1E1,-2.5210086E-1,-6.779661E-2,3E0,1E1,1.5E1,6E0,-7.3970005E-2,-5.823457E-2,-5.4531466E-2,-3.9057072E-2,-3.154237E-2,-2.2046082E-2,-1.3027394E-2,-6.033751E-3,1.8522171E-3,1.1804659E-2,2.2427477E-2,3.6521338E-2,4.1940775E-2,6.1944384E-2,4.691129E-2,7.060673E-2],"split_indices":[7,7,7,7,7,7,7,4,4,7,7,4,4,4,4,0,0,0,0,0,0,0,0,0,0,0,0,0,0,0,0],"split_type":[0,0,0,0,0,0,0,0,0,0,0,0,0,0,0,0,0,0,0,0,0,0,0,0,0,0,0,0,0,0,0],"sum_hessian":[1.9311283E5,8.410505E4,1.0900779E5,3.7087406E4,4.7017637E4,7.3101805E4,3.5905992E4,2.1944547E4,1.5142862E4,2.4226467E4,2.2791168E4,4.8193934E4,2.4907865E4,1.7267027E4,1.8638963E4,1.6397385E4,5.5471616E3,8.120031E3,7.022831E3,1.1652453E4,1.2574015E4,1.4143199E4,8.64797E3,2.8370584E4,1.9823352E4,1.572787E4,9.179995E3,1.0271938E4,6.99509E3,8.5086237E2,1.77881E4],"tree_param":{"num_deleted":"0","num_feature":"12","num_nodes":"31","size_leaf_vector":"1"}},{"base_weights":[7.413847E-4,-7.7683914E-1,5.078885E-1,-1.2369778E0,-4.5216495E-1,1.8046783E-1,1.0886424E0,-1.4431239E0,-1.0638311E0,-6.09874E-1,-2.7928495E-1,6.204168E-2,4.25378E-1,8.653499E-1,1.34355E0,-7.369887E-2,-5.887098E-2,-5.973613E-2,-4.314853E-2,-4.105985E-2,-2.7235532E-2,-1.759107E-2,-1.1473197E-2,-2.5559315E-3,7.526965E-3,1.49660185E-2,2.871362E-2,3.6659118E-2,5.695122E-2,4.7743507E-2,6.8708435E-2],"categories":[],"categories_nodes":[],"categories_segments":[],"categories_sizes":[],"default_left":[0,0,0,0,0,0,0,0,0,0,0,0,0,0,0,0,0,0,0,0,0,0,0,0,0,0,0,0,0,0,0],"id":9,"left_children":[1,3,5,7,9,11,13,15,17,19,21,23,25,27,29,-1,-1,-1,-1,-1,-1,-1,-1,-1,-1,-1,-1,-1,-1,-1,-1],"loss_changes":[7.557548E4,1.1301586E4,2.2056176E4,1.1155508E3,1.2092129E3,2.1513684E3,2.3791172E3,1.1536328E2,4.4627148E2,3.1896582E2,7.639734E1,5.0073303E2,4.5361182E2,8.055762E2,2.3105078E2,0E0,0E0,0E0,0E0,0E0,0E0,0E0,0E0,0E0,0E0,0E0,0E0,0E0,0E0,0E0,0E0],"parents":[2147483647,0,0,1,1,2,2,3,3,4,4,5,5,6,6,7,7,8,8,9,9,10,10,11,11,12,12,13,13,14,14],"right_children":[2,4,6,8,10,12,14,16,18,20,22,24,26,28,30,-1,-1,-1,-1,-1,-1,-1,-1,-1,-1,-1,-1,-1,-1,-1,-1],"split_conditions":[-6.514658E-2,-5.042017E-1,3.9823008E-1,-1.3043479E0,-1.9512194E-1,5E0,1.0873146E0,-7E0,-1E1,-1E1,-1.3392857E-1,2.20022E-2,2.4793388E-1,1.5E1,7E0,-7.369887E-2,-5.887098E-2,-5.973613E-2,-4.314853E-2,-4.105985E-2,-2.7235532E-2,-1.759107E-2,-1.1473197E-2,-2.5559315E-3,7.526965E-3,1.49660185E-2,2.871362E-2,3.6659118E-2,5.695122E-2,4.7743507E-2,6.8708435E-2],"split_indices":[7,7,7,7,7,4,7,4,4,4,7,7,7,4,4,0,0,0,0,0,0,0,0,0,0,0,0,0,0,0,0],"split_type":[0,0,0,0,0,0,0,0,0,0,0,0,0,0,0,0,0,0,0,0,0,0,0,0,0,0,0,0,0,0,0],"sum_hessian":[1.9164478E5,7.5651695E4,1.15993086E5,3.1295666E4,4.4356035E4,7.417538E4,4.1817703E4,1.4283086E4,1.701258E4,2.3194459E4,2.1161574E4,4.9999438E4,2.4175941E4,2.229354E4,1.9524164E4,1.27930205E4,1.4900653E3,1.0297338E4,6.715242E3,5.4638228E3,1.7730637E4,8.614017E3,1.2547558E4,2.1942447E4,2.805699E4,1.3093595E4,1.1082347E4,1.5035852E4,7.257688E3,1.428077E3,1.8096088E4],"tree_param":{"num_deleted":"0","num_feature":"12","num_nodes":"31","size_leaf_vector":"1"}},{"base_weights":[-7.657532E-5,-7.4545896E-1,4.862741E-1,-1.2190815E0,-4.432264E-1,2.0909582E-1,1.1345648E0,-1.4027038E0,-1.0511022E0,-6.462938E-1,-3.0793893E-1,7.763321E-2,4.9489096E-1,9.33393E-1,1.3250567E0,-5.637431E-2,-7.1743414E-2,-4.4898894E-2,-6.03291E-2,-2.915825E-2,-4.224767E-2,-1.9857204E-2,-1.1647692E-2,-2.631108E-3,8.18568E-3,1.9918336E-2,3.3502858E-2,3.5068724E-2,5.480654E-2,5.4290473E-2,6.8377815E-2],"categories":[],"categories_nodes":[],"categories_segments":[],"categories_sizes":[],"default_left":[0,0,0,0,0,0,0,0,0,0,0,0,0,0,0,0,0,0,0,0,0,0,0,0,0,0,0,0,0,0,0],"id":10,"left_children":[1,3,5,7,9,11,13,15,17,19,21,23,25,27,29,-1,-1,-1,-1,-1,-1,-1,-1,-1,-1,-1,-1,-1,-1,-1,-1],"loss_changes":[6.886095E4,1.0735672E4,2.065527E4,8.996992E2,1.2576885E3,3.0253315E3,1.3180703E3,1.21921875E2,3.622754E2,2.2909326E2,1.8373315E2,6.184251E2,4.286792E2,6.3158984E2,1.7828711E2,0E0,0E0,0E0,0E0,0E0,0E0,0E0,0E0,0E0,0E0,0E0,0E0,0E0,0E0,0E0,0E0],"parents":[2147483647,0,0,1,1,2,2,3,3,4,4,5,5,6,6,7,7,8,8,9,9,10,10,11,11,12,12,13,13,14,14],"right_children":[2,4,6,8,10,12,14,16,18,20,22,24,26,28,30,-1,-1,-1,-1,-1,-1,-1,-1,-1,-1,-1,-1,-1,-1,-1,-1],"split_conditions":[-6.514658E-2,-5.3892213E-1,5.1391864E-1,-1.3043479E0,-2.5210086E-1,1.9543974E-1,1.1864407E0,8E0,1.3E1,1.2E1,-1.4888337E-1,2.20022E-2,1E1,1.2E1,1E1,-5.637431E-2,-7.1743414E-2,-4.4898894E-2,-6.03291E-2,-2.915825E-2,-4.224767E-2,-1.9857204E-2,-1.1647692E-2,-2.631108E-3,8.18568E-3,1.9918336E-2,3.3502858E-2,3.5068724E-2,5.480654E-2,5.4290473E-2,6.8377815E-2],"split_indices":[7,7,7,7,7,7,7,5,5,5,7,7,5,5,5,0,0,0,0,0,0,0,0,0,0,0,0,0,0,0,0],"split_type":[0,0,0,0,0,0,0,0,0,0,0,0,0,0,0,0,0,0,0,0,0,0,0,0,0,0,0,0,0,0,0],"sum_hessian":[1.8995023E5,7.500177E4,1.1494846E5,2.9215584E4,4.5786188E4,8.052228E4,3.4426176E4,1.3954374E4,1.526121E4,1.8305594E4,2.7480594E4,5.515354E4,2.5368746E4,1.6746592E4,1.7679584E4,1.4639562E3,1.2490417E4,7.6922627E3,7.5689473E3,1.3894289E4,4.4113047E3,1.2548329E4,1.4932266E4,2.1945846E4,3.320769E4,1.6358025E4,9.01072E3,6.905951E3,9.84064E3,2.6708516E3,1.5008732E4],"tree_param":{"num_deleted":"0","num_feature":"12","num_nodes":"31","size_leaf_vector":"1"}},{"base_weights":[9.74831E-4,-6.3072497E-1,5.2555966E-1,-1.1165437E0,-3.694599E-1,2.2401229E-1,1.0091329E0,-7.705247E-1,-1.2729477E0,-2.8529498E-1,-7.413561E-1,8.054505E-2,3.932126E-1,7.7810043E-1,1.2314188E0,-4.798123E-2,-3.160374E-2,-5.5215742E-2,-6.905986E-2,-2.2488175E-2,-7.5050294E-3,-4.794214E-2,-2.554497E-2,7.96475E-4,7.7197575E-3,1.5260748E-2,3.8777437E-2,3.3299316E-2,5.786681E-2,5.268371E-2,6.6873826E-2],"categories":[],"categories_nodes":[],"categories_segments":[],"categories_sizes":[],"default_left":[0,0,0,0,0,0,0,0,0,0,0,0,0,0,0,0,0,0,0,0,0,0,0,0,0,0,0,0,0,0,0],"id":11,"left_children":[1,3,5,7,9,11,13,15,17,19,21,23,25,27,29,-1,-1,-1,-1,-1,-1,-1,-1,-1,-1,-1,-1,-1,-1,-1,-1],"loss_changes":[6.2422754E4,1.0846922E4,1.5006297E4,1.6164297E3,1.7393389E3,1.5386577E3,2.0288906E3,2.4303613E2,3.7417188E2,1.0076521E3,5.135386E2,1.6368652E2,9.7830566E2,8.2340234E2,3.7830078E2,0E0,0E0,0E0,0E0,0E0,0E0,0E0,0E0,0E0,0E0,0E0,0E0,0E0,0E0,0E0,0E0],"parents":[2147483647,0,0,1,1,2,2,3,3,4,4,5,5,6,6,7,7,8,8,9,9,10,10,11,11,12,12,13,13,14,14],"right_children":[2,4,6,8,10,12,14,16,18,20,22,24,26,28,30,-1,-1,-1,-1,-1,-1,-1,-1,-1,-1,-1,-1,-1,-1,-1,-1],"split_conditions":[0E0,-9E0,9E0,6.2E1,4E0,4E0,7.8E1,-1.3E1,8.8E1,-4E0,-4E0,2E0,4E0,1.7E1,1.5E1,-4.798123E-2,-3.160374E-2,-5.5215742E-2,-6.905986E-2,-2.2488175E-2,-7.5050294E-3,-4.794214E-2,-2.554497E-2,7.96475E-4,7.7197575E-3,1.5260748E-2,3.8777437E-2,3.3299316E-2,5.786681E-2,5.268371E-2,6.6873826E-2],"split_indices":[4,4,4,3,0,4,2,4,3,4,4,4,0,4,4,0,0,0,0,0,0,0,0,0,0,0,0,0,0,0,0],"split_type":[0,0,0,0,0,0,0,0,0,0,0,0,0,0,0,0,0,0,0,0,0,0,0,0,0,0,0,0,0,0,0],"sum_hessian":[1.8837005E5,8.54599E4,1.0291016E5,2.9885312E4,5.5574586E4,6.338555E4,3.9524605E4,9.305127E3,2.0580186E4,4.531988E4,1.0254706E4,3.430194E4,2.908361E4,1.9383215E4,2.014139E4,3.930617E3,5.3745103E3,8.050382E3,1.2529804E4,2.0445238E4,2.487464E4,5.2741875E3,4.9805186E3,1.8295453E4,1.600649E4,2.3643639E4,5.43997E3,1.4962563E4,4.4206514E3,7.5309736E3,1.2610416E4],"tree_param":{"num_deleted":"0","num_feature":"12","num_nodes":"31","size_leaf_vector":"1"}},{"base_weights":[1.1907198E-3,-6.857919E-1,4.4764218E-1,-1.1768694E0,-4.1882825E-1,1.8981121E-1,1.075931E0,-1.336804E0,-1.008911E0,-6.1247563E-1,-2.7515942E-1,7.166209E-2,4.6422604E-1,8.6637443E-1,1.2637805E0,-6.850819E-2,-5.2922167E-2,-5.932784E-2,-4.296304E-2,-3.671674E-2,-2.5495676E-2,-1.7634382E-2,-1.0509827E-2,-8.7442686E-4,8.469937E-3,1.6869187E-2,3.0000364E-2,3.3367228E-2,5.2572995E-2,4.3514527E-2,6.474166E-2],"categories":[],"categories_nodes":[],"categories_segments":[],"categories_sizes":[],"default_left":[0,0,0,0,0,0,0,0,0,0,0,0,0,0,0,0,0,0,0,0,0,0,0,0,0,0,0,0,0,0,0],"id":12,"left_children":[1,3,5,7,9,11,13,15,17,19,21,23,25,27,29,-1,-1,-1,-1,-1,-1,-1,-1,-1,-1,-1,-1,-1,-1,-1,-1],"loss_changes":[5.7272504E4,9.642379E3,1.8334336E4,6.9447266E2,1.3255459E3,2.6018467E3,1.2952734E3,1.2173242E2,3.3497852E2,2.5327197E2,1.3771143E2,4.8880984E2,4.157749E2,5.7284766E2,2.1103125E2,0E0,0E0,0E0,0E0,0E0,0E0,0E0,0E0,0E0,0E0,0E0,0E0,0E0,0E0,0E0,0E0],"parents":[2147483647,0,0,1,1,2,2,3,3,4,4,5,5,6,6,7,7,8,8,9,9,10,10,11,11,12,12,13,13,14,14],"right_children":[2,4,6,8,10,12,14,16,18,20,22,24,26,28,30,-1,-1,-1,-1,-1,-1,-1,-1,-1,-1,-1,-1,-1,-1,-1,-1],"split_conditions":[-6.514658E-2,-5.970149E-1,5.1391864E-1,-1.3043479E0,-2.5210086E-1,6E0,1.1374408E0,-7E0,-1.3E1,-9E0,-1.4888337E-1,2E0,3.0112922E-1,1.3E1,7E0,-6.850819E-2,-5.2922167E-2,-5.932784E-2,-4.296304E-2,-3.671674E-2,-2.5495676E-2,-1.7634382E-2,-1.0509827E-2,-8.7442686E-4,8.469937E-3,1.6869187E-2,3.0000364E-2,3.3367228E-2,5.2572995E-2,4.3514527E-2,6.474166E-2],"split_indices":[7,7,7,7,7,4,7,4,4,4,7,4,7,4,4,0,0,0,0,0,0,0,0,0,0,0,0,0,0,0,0],"split_type":[0,0,0,0,0,0,0,0,0,0,0,0,0,0,0,0,0,0,0,0,0,0,0,0,0,0,0,0,0,0,0],"sum_hessian":[1.867332E5,7.355265E4,1.1318056E5,2.5902252E4,4.7650395E4,8.024976E4,3.2930805E4,1.3264484E4,1.2637767E4,2.0293738E4,2.7356656E4,5.6098047E4,2.4151713E4,1.5568683E4,1.7362121E4,1.1841437E4,1.4230476E3,5.7752256E3,6.8625415E3,9.271567E3,1.102217E4,1.247011E4,1.4886546E4,2.933809E4,2.6759957E4,1.2488686E4,1.1663027E4,7.50397E3,8.064713E3,1.2720544E3,1.6090066E4],"tree_param":{"num_deleted":"0","num_feature":"12","num_nodes":"31","size_leaf_vector":"1"}},{"base_weights":[-7.973041E-4,-6.048234E-1,4.664087E-1,-1.0956086E0,-3.3011368E-1,2.0826545E-1,1.0450908E0,-1.271867E0,-8.896414E-1,-5.0375825E-1,-1.935379E-1,1.0466435E-1,4.7075808E-1,8.329691E-1,1.2377979E0,-6.6870145E-2,-5.280441E-2,-5.066644E-2,-3.573934E-2,-3.181687E-2,-2.0934151E-2,-1.162767E-2,-5.081128E-3,1.2972113E-3,9.882228E-3,9.016054E-3,2.5678355E-2,3.1590186E-2,5.1131E-2,4.4821616E-2,6.37457E-2],"categories":[],"categories_nodes":[],"categories_segments":[],"categories_sizes":[],"default_left":[0,0,0,0,0,0,0,0,0,0,0,0,0,0,0,0,0,0,0,0,0,0,0,0,0,0,0,0,0,0,0],"id":13,"left_children":[1,3,5,7,9,11,13,15,17,19,21,23,25,27,29,-1,-1,-1,-1,-1,-1,-1,-1,-1,-1,-1,-1,-1,-1,-1,-1],"loss_changes":[5.2188582E4,1.0873949E4,1.5576801E4,1.0496445E3,1.2263032E3,1.9609521E3,1.3138555E3,2.1911523E2,2.8801172E2,2.565171E2,1.0378613E2,3.7844458E2,2.5362354E2,5.836416E2,2.1238086E2,0E0,0E0,0E0,0E0,0E0,0E0,0E0,0E0,0E0,0E0,0E0,0E0,0E0,0E0,0E0,0E0],"parents":[2147483647,0,0,1,1,2,2,3,3,4,4,5,5,6,6,7,7,8,8,9,9,10,10,11,11,12,12,13,13,14,14],"right_children":[2,4,6,8,10,12,14,16,18,20,22,24,26,28,30,-1,-1,-1,-1,-1,-1,-1,-1,-1,-1,-1,-1,-1,-1,-1,-1],"split_conditions":[-2.8449502E-2,-5.042017E-1,5.1391864E-1,-1.0619469E0,-1.9512194E-1,2.3255815E-1,1.1374408E0,-1E1,-1E1,-3.4416825E-1,-6.779661E-2,7.702182E-2,5E0,1.3E1,8E0,-6.6870145E-2,-5.280441E-2,-5.066644E-2,-3.573934E-2,-3.181687E-2,-2.0934151E-2,-1.162767E-2,-5.081128E-3,1.2972113E-3,9.882228E-3,9.016054E-3,2.5678355E-2,3.1590186E-2,5.1131E-2,4.4821616E-2,6.37457E-2],"split_indices":[7,7,7,7,7,7,7,4,4,7,7,7,4,4,4,0,0,0,0,0,0,0,0,0,0,0,0,0,0,0,0],"split_type":[0,0,0,0,0,0,0,0,0,0,0,0,0,0,0,0,0,0,0,0,0,0,0,0,0,0,0,0,0,0,0],"sum_hessian":[1.849297E5,8.0654914E4,1.042748E5,2.8943193E4,5.171172E4,7.2109125E4,3.216567E4,1.5593626E4,1.3349567E4,2.276511E4,2.894661E4,5.170392E4,2.0405205E4,1.5314081E4,1.685159E4,1.1956901E4,3.6367244E3,7.8159697E3,5.533598E3,8.895734E3,1.3869375E4,2.0319867E4,8.626742E3,2.7999715E4,2.3704205E4,2.6219368E3,1.778327E4,7.433542E3,7.8805386E3,1.6550333E3,1.5196557E4],"tree_param":{"num_deleted":"0","num_feature":"12","num_nodes":"31","size_leaf_vector":"1"}},{"base_weights":[4.2946768E-4,-5.7985115E-1,4.487861E-1,-1.0551414E0,-3.0847162E-1,2.196932E-1,1.0660176E0,-1.244866E0,-8.475305E-1,-4.73429E-1,-1.8382932E-1,9.051902E-2,4.5400065E-1,8.962653E-1,1.2517859E0,-6.5572284E-2,-5.134622E-2,-4.8921965E-2,-3.3502474E-2,-3.0099843E-2,-1.9893609E-2,-1.277646E-2,-6.538763E-3,1.4099702E-3,8.778963E-3,1.54569065E-2,2.8937045E-2,3.5802227E-2,5.6372236E-2,5.269724E-2,6.4233735E-2],"categories":[],"categories_nodes":[],"categories_segments":[],"categories_sizes":[],"default_left":[0,0,0,0,0,0,0,0,0,0,0,0,0,0,0,0,0,0,0,0,0,0,0,0,0,0,0,0,0,0,0],"id":14,"left_children":[1,3,5,7,9,11,13,15,17,19,21,23,25,27,29,-1,-1,-1,-1,-1,-1,-1,-1,-1,-1,-1,-1,-1,-1,-1,-1],"loss_changes":[4.7722207E4,1.0311992E4,1.4631455E4,1.1435E3,1.0463184E3,2.2840579E3,8.8214453E2,2.1893164E2,3.2178223E2,2.1253711E2,1.1024689E2,2.57876E2,4.844453E2,6.0911035E2,8.565039E1,0E0,0E0,0E0,0E0,0E0,0E0,0E0,0E0,0E0,0E0,0E0,0E0,0E0,0E0,0E0,0E0],"parents":[2147483647,0,0,1,1,2,2,3,3,4,4,5,5,6,6,7,7,8,8,9,9,10,10,11,11,12,12,13,13,14,14],"right_children":[2,4,6,8,10,12,14,16,18,20,22,24,26,28,30,-1,-1,-1,-1,-1,-1,-1,-1,-1,-1,-1,-1,-1,-1,-1,-1],"split_conditions":[-2.8449502E-2,-4.8894063E-1,5.983681E-1,-1.0619469E0,-1.9512194E-1,6E0,1.4285715E0,-1E1,-1E1,-3.4416825E-1,-3E0,7.702182E-2,3.0112922E-1,1.5E1,1E1,-6.5572284E-2,-5.134622E-2,-4.8921965E-2,-3.3502474E-2,-3.0099843E-2,-1.9893609E-2,-1.277646E-2,-6.538763E-3,1.4099702E-3,8.778963E-3,1.54569065E-2,2.8937045E-2,3.5802227E-2,5.6372236E-2,5.269724E-2,6.4233735E-2],"split_indices":[7,7,7,7,7,4,7,4,4,7,4,7,7,4,4,0,0,0,0,0,0,0,0,0,0,0,0,0,0,0,0],"split_type":[0,0,0,0,0,0,0,0,0,0,0,0,0,0,0,0,0,0,0,0,0,0,0,0,0,0,0,0,0,0,0],"sum_hessian":[1.8342314E5,7.994932E4,1.0347381E5,2.9056785E4,5.0892535E4,7.546531E4,2.8008502E4,1.5179787E4,1.3876999E4,2.1902697E4,2.8989838E4,4.8647324E4,2.6817986E4,1.4638173E4,1.337033E4,1.1623788E4,3.5559993E3,7.9837354E3,5.8932637E3,8.1047114E3,1.3797986E4,1.2326873E4,1.6662965E4,2.8077559E4,2.0569766E4,1.2409798E4,1.44081875E4,8.227976E3,6.4101973E3,1.9105518E3,1.1459778E4],"tree_param":{"num_deleted":"0","num_feature":"12","num_nodes":"31","size_leaf_vector":"1"}},{"base_weights":[-2.1569192E-4,-6.0733527E-1,3.9284393E-1,-1.0964425E0,-3.676286E-1,1.8063356E-1,1.0395646E0,-1.2887522E0,-9.6005493E-1,-6.077614E-1,-2.7103412E-1,7.179132E-2,4.5590428E-1,8.7446856E-1,1.237636E0,-6.625276E-2,-5.90564E-2,-3.7410654E-2,-5.222804E-2,-2.0410076E-2,-3.3641864E-2,-1.7680412E-2,-9.56572E-3,-1.9797885E-3,6.84139E-3,2.4625674E-2,1.0234335E-2,2.0662753E-2,4.715749E-2,5.8022894E-2,6.370302E-2],"categories":[],"categories_nodes":[],"categories_segments":[],"categories_sizes":[],"default_left":[0,0,0,0,0,0,0,0,0,0,0,0,0,0,0,0,0,0,0,0,0,0,0,0,0,0,0,0,0,0,0],"id":15,"left_children":[1,3,5,7,9,11,13,15,17,19,21,23,25,27,29,-1,-1,-1,-1,-1,-1,-1,-1,-1,-1,-1,-1,-1,-1,-1,-1],"loss_changes":[4.3366164E4,8.372637E3,1.5138846E4,6.1483203E2,1.1115767E3,2.4884634E3,8.90125E2,3.6501953E1,2.4530078E2,1.7826807E2,2.2494434E2,4.312078E2,2.1634814E2,4.705586E2,3.3341797E1,0E0,0E0,0E0,0E0,0E0,0E0,0E0,0E0,0E0,0E0,0E0,0E0,0E0,0E0,0E0,0E0],"parents":[2147483647,0,0,1,1,2,2,3,3,4,4,5,5,6,6,7,7,8,8,9,9,10,10,11,11,12,12,13,13,14,14],"right_children":[2,4,6,8,10,12,14,16,18,20,22,24,26,28,30,-1,-1,-1,-1,-1,-1,-1,-1,-1,-1,-1,-1,-1,-1,-1,-1],"split_conditions":[-6.514658E-2,-6.185567E-1,5.983681E-1,-1.6551725E0,-3.3333334E-1,2.3255815E-1,1.5E0,-2.178771E0,5.49E2,9.34E2,-1.6666667E-1,2.20022E-2,8.3E1,4.02E2,2.25E0,-6.625276E-2,-5.90564E-2,-3.7410654E-2,-5.222804E-2,-2.0410076E-2,-3.3641864E-2,-1.7680412E-2,-9.56572E-3,-1.9797885E-3,6.84139E-3,2.4625674E-2,1.0234335E-2,2.0662753E-2,4.715749E-2,5.8022894E-2,6.370302E-2],"split_indices":[7,7,7,7,7,7,7,7,1,1,7,7,3,1,7,0,0,0,0,0,0,0,0,0,0,0,0,0,0,0,0],"split_type":[0,0,0,0,0,0,0,0,0,0,0,0,0,0,0,0,0,0,0,0,0,0,0,0,0,0,0,0,0,0,0],"sum_hessian":[1.8172453E5,7.141557E4,1.1030897E5,2.3487383E4,4.7928184E4,8.305663E4,2.725234E4,9.742196E3,1.3745187E4,1.3747288E4,3.4180895E4,5.952261E4,2.3534021E4,1.4866365E4,1.2385974E4,7.276451E3,2.465745E3,3.9223538E3,9.822833E3,3.3823481E3,1.036494E4,1.6788178E4,1.7392719E4,2.1942455E4,3.7580152E4,2.053985E4,2.994171E3,1.9277826E3,1.2938583E4,3.9818516E3,8.404122E3],"tree_param":{"num_deleted":"0","num_feature":"12","num_nodes":"31","size_leaf_vector":"1"}},{"base_weights":[1.5420016E-4,-5.846042E-1,3.7769896E-1,-1.0685211E0,-3.526562E-1,1.5576349E-1,9.688579E-1,-1.202767E0,-8.5963607E-1,-5.849635E-1,-2.5984776E-1,5.7300646E-2,3.8989693E-1,7.623181E-1,1.180456E0,-6.421801E-2,-5.1754113E-2,-6.315379E-2,-3.8194515E-2,-1.938758E-2,-3.2493487E-2,-1.8052343E-2,-9.864728E-3,-9.0021186E-4,7.0135123E-3,1.1900491E-2,2.3806129E-2,3.041681E-2,5.0295364E-2,4.5851223E-2,6.1499715E-2],"categories":[],"categories_nodes":[],"categories_segments":[],"categories_sizes":[],"default_left":[0,0,0,0,0,0,0,0,0,0,0,0,0,0,0,0,0,0,0,0,0,0,0,0,0,0,0,0,0,0,0],"id":16,"left_children":[1,3,5,7,9,11,13,15,17,19,21,23,25,27,29,-1,-1,-1,-1,-1,-1,-1,-1,-1,-1,-1,-1,-1,-1,-1,-1],"loss_changes":[3.9749027E4,7.9282812E3,1.4353986E4,6.407617E2,1.0293848E3,1.8337765E3,1.3042012E3,1.8926172E2,3.4505176E2,1.7422412E2,2.1593433E2,3.498778E2,3.082942E2,5.6631836E2,1.913457E2,0E0,0E0,0E0,0E0,0E0,0E0,0E0,0E0,0E0,0E0,0E0,0E0,0E0,0E0,0E0,0E0],"parents":[2147483647,0,0,1,1,2,2,3,3,4,4,5,5,6,6,7,7,8,8,9,9,10,10,11,11,12,12,13,13,14,14],"right_children":[2,4,6,8,10,12,14,16,18,20,22,24,26,28,30,-1,-1,-1,-1,-1,-1,-1,-1,-1,-1,-1,-1,-1,-1,-1,-1],"split_conditions":[-6.514658E-2,-6.185567E-1,5.1391864E-1,-1.2E1,-3.3333334E-1,6E0,1.1864407E0,-1.1145511E0,-2.178771E0,9.34E2,-1.9512194E-1,2E0,2.4793388E-1,1.5E1,1E1,-6.421801E-2,-5.1754113E-2,-6.315379E-2,-3.8194515E-2,-1.938758E-2,-3.2493487E-2,-1.8052343E-2,-9.864728E-3,-9.0021186E-4,7.0135123E-3,1.1900491E-2,2.3806129E-2,3.041681E-2,5.0295364E-2,4.5851223E-2,6.1499715E-2],"split_indices":[7,7,7,4,7,4,7,7,7,1,7,4,7,4,4,0,0,0,0,0,0,0,0,0,0,0,0,0,0,0,0],"split_type":[0,0,0,0,0,0,0,0,0,0,0,0,0,0,0,0,0,0,0,0,0,0,0,0,0,0,0,0,0,0,0],"sum_hessian":[1.8004322E5,7.063695E4,1.0940626E5,2.2885969E4,4.775099E4,7.9544555E4,2.9861703E4,1.3929213E4,8.956756E3,1.3629615E4,3.412137E4,5.5996816E4,2.3547742E4,1.5113806E4,1.4747898E4,9.365453E3,4.56376E3,1.7156039E3,7.2411523E3,3.37672E3,1.0252895E4,1.3032507E4,2.1088865E4,2.935469E4,2.6642125E4,8.528493E3,1.5019249E4,9.262275E3,5.851531E3,2.33745E3,1.2410448E4],"tree_param":{"num_deleted":"0","num_feature":"12","num_nodes":"31","size_leaf_vector":"1"}},{"base_weights":[1.4699253E-3,-5.586914E-1,3.6211032E-1,-1.040558E0,-3.3245653E-1,1.6413811E-1,9.940875E-1,-1.178141E0,-8.286668E-1,-5.548165E-1,-2.442795E-1,5.5906657E-2,3.9748946E-1,7.430997E-1,1.1320252E0,-6.314967E-2,-5.0293375E-2,-5.919559E-2,-3.6000114E-2,-3.0470297E-2,-1.6513893E-2,-1.5584308E-2,-7.863166E-3,-1.7394148E-3,5.6864503E-3,1.6169727E-2,2.8183341E-2,3.1158416E-2,5.8057126E-2,4.7718547E-2,6.0633328E-2],"categories":[],"categories_nodes":[],"categories_segments":[],"categories_sizes":[],"default_left":[0,0,0,0,0,0,0,0,0,0,0,0,0,0,0,0,0,0,0,0,0,0,0,0,0,0,0,0,0,0,0],"id":17,"left_children":[1,3,5,7,9,11,13,15,17,19,21,23,25,27,29,-1,-1,-1,-1,-1,-1,-1,-1,-1,-1,-1,-1,-1,-1,-1,-1],"loss_changes":[3.6027336E4,7.614115E3,1.3573507E4,6.495801E2,9.3185156E2,2.0864446E3,8.950918E2,1.9647852E2,3.384131E2,1.6522852E2,1.9959961E2,2.9597546E2,3.2211963E2,4.5958496E2,2.3807227E2,0E0,0E0,0E0,0E0,0E0,0E0,0E0,0E0,0E0,0E0,0E0,0E0,0E0,0E0,0E0,0E0],"parents":[2147483647,0,0,1,1,2,2,3,3,4,4,5,5,6,6,7,7,8,8,9,9,10,10,11,11,12,12,13,13,14,14],"right_children":[2,4,6,8,10,12,14,16,18,20,22,24,26,28,30,-1,-1,-1,-1,-1,-1,-1,-1,-1,-1,-1,-1,-1,-1,-1,-1],"split_conditions":[-6.514658E-2,-6.185567E-1,5.983681E-1,-1.2E1,-3.3333334E-1,2.0761245E-1,1.3E1,-1.1145511E0,-1.8848168E0,1.64E2,-1.4888337E-1,2.20022E-2,1.1E1,1.8687431E0,1.0452962E0,-6.314967E-2,-5.0293375E-2,-5.919559E-2,-3.6000114E-2,-3.0470297E-2,-1.6513893E-2,-1.5584308E-2,-7.863166E-3,-1.7394148E-3,5.6864503E-3,1.6169727E-2,2.8183341E-2,3.1158416E-2,5.8057126E-2,4.7718547E-2,6.0633328E-2],"split_indices":[7,7,7,4,7,7,4,7,7,6,7,7,4,7,7,0,0,0,0,0,0,0,0,0,0,0,0,0,0,0,0],"split_type":[0,0,0,0,0,0,0,0,0,0,0,0,0,0,0,0,0,0,0,0,0,0,0,0,0,0,0,0,0,0,0],"sum_hessian":[1.7833633E5,6.9846836E4,1.0848949E5,2.2314566E4,4.753227E4,8.261188E4,2.5877611E4,1.3526872E4,8.787693E3,1.3495291E4,3.4036977E4,5.6436926E4,2.6174957E4,9.180115E3,1.6697498E4,9.058717E3,4.468156E3,2.0560803E3,6.731613E3,1.085462E4,2.640671E3,1.9178145E4,1.4858834E4,2.1972783E4,3.446414E4,1.810519E4,8.0697676E3,7.1355137E3,2.0446017E3,5.2170513E3,1.1480445E4],"tree_param":{"num_deleted":"0","num_feature":"12","num_nodes":"31","size_leaf_vector":"1"}},{"base_weights":[1.3616675E-5,-5.440056E-1,3.4340113E-1,-1.0175796E0,-3.2277665E-1,1.5354471E-1,9.7041297E-1,-1.1843568E0,-8.425205E-1,-5.42543E-1,-2.4059092E-1,5.0093457E-2,3.8015893E-1,6.524851E-1,1.0835263E0,-6.186672E-2,-4.7208756E-2,-5.1460933E-2,-3.4493458E-2,-1.7227354E-2,-3.0202776E-2,-1.6567001E-2,-8.971177E-3,-9.5822336E-4,6.366995E-3,1.2628742E-2,2.4616526E-2,2.661717E-2,5.5798966E-2,4.526724E-2,5.9578E-2],"categories":[],"categories_nodes":[],"categories_segments":[],"categories_sizes":[],"default_left":[0,0,0,0,0,0,0,0,0,0,0,0,0,0,0,0,0,0,0,0,0,0,0,0,0,0,0,0,0,0,0],"id":18,"left_children":[1,3,5,7,9,11,13,15,17,19,21,23,25,27,29,-1,-1,-1,-1,-1,-1,-1,-1,-1,-1,-1,-1,-1,-1,-1,-1],"loss_changes":[3.301421E4,7.164301E3,1.2897029E4,6.34709E2,8.41771E2,1.9495854E3,9.048301E2,1.406836E2,3.02146E2,1.5430103E2,1.8826733E2,3.0547168E2,3.7289917E2,3.675022E2,3.564082E2,0E0,0E0,0E0,0E0,0E0,0E0,0E0,0E0,0E0,0E0,0E0,0E0,0E0,0E0,0E0,0E0],"parents":[2147483647,0,0,1,1,2,2,3,3,4,4,5,5,6,6,7,7,8,8,9,9,10,10,11,11,12,12,13,13,14,14],"right_children":[2,4,6,8,10,12,14,16,18,20,22,24,26,28,30,-1,-1,-1,-1,-1,-1,-1,-1,-1,-1,-1,-1,-1,-1,-1,-1],"split_conditions":[-6.779661E-2,-6.185567E-1,5.983681E-1,-1.3043479E0,-3.4416825E-1,6E0,1.1E1,-9E0,-1.3E1,9.06E2,-1.9512194E-1,2E0,3.0112922E-1,1.8687431E0,1.1374408E0,-6.186672E-2,-4.7208756E-2,-5.1460933E-2,-3.4493458E-2,-1.7227354E-2,-3.0202776E-2,-1.6567001E-2,-8.971177E-3,-9.5822336E-4,6.366995E-3,1.2628742E-2,2.4616526E-2,2.661717E-2,5.5798966E-2,4.526724E-2,5.9578E-2],"split_indices":[7,7,7,7,7,4,4,4,4,1,7,4,7,7,7,0,0,0,0,0,0,0,0,0,0,0,0,0,0,0,0],"split_type":[0,0,0,0,0,0,0,0,0,0,0,0,0,0,0,0,0,0,0,0,0,0,0,0,0,0,0,0,0,0,0],"sum_hessian":[1.7672472E5,6.838449E4,1.0834022E5,2.177284E4,4.6611656E4,8.316076E4,2.5179465E4,1.1147216E4,1.0625623E4,1.2685299E4,3.392636E4,5.7096812E4,2.6063943E4,6.6093423E3,1.8570123E4,9.129374E3,2.017842E3,4.7771963E3,5.8484272E3,3.0084229E3,9.676876E3,1.3658271E4,2.0268086E4,3.0105479E4,2.6991334E4,1.2195744E4,1.3868199E4,5.2505127E3,1.3588297E3,7.012952E3,1.1557171E4],"tree_param":{"num_deleted":"0","num_feature":"12","num_nodes":"31","size_leaf_vector":"1"}},{"base_weights":[-4.6975916E-4,-4.7239643E-1,3.63485E-1,-9.685833E-1,-2.6378116E-1,1.7001049E-1,9.500539E-1,-1.1625081E0,-7.9052764E-1,-4.3525994E-1,-1.6025847E-1,8.281602E-2,4.0811965E-1,6.3151497E-1,1.0656588E0,-6.05972E-2,-4.3830954E-2,-4.9145006E-2,-3.2107737E-2,-2.8921986E-2,-1.842914E-2,-1.1940899E-2,-5.485558E-3,7.677782E-4,7.901035E-3,1.6577346E-2,2.6358E-2,2.5687456E-2,5.4676663E-2,4.4243243E-2,5.885607E-2],"categories":[],"categories_nodes":[],"categories_segments":[],"categories_sizes":[],"default_left":[0,0,0,0,0,0,0,0,0,0,0,0,0,0,0,0,0,0,0,0,0,0,0,0,0,0,0,0,0,0,0],"id":19,"left_children":[1,3,5,7,9,11,13,15,17,19,21,23,25,27,29,-1,-1,-1,-1,-1,-1,-1,-1,-1,-1,-1,-1,-1,-1,-1,-1],"loss_changes":[3.0082566E4,7.8935625E3,1.1221718E4,7.7847266E2,9.530137E2,1.543781E3,9.0248047E2,1.5160938E2,3.3533252E2,1.9273096E2,1.3292047E2,2.761326E2,1.8149927E2,3.549131E2,3.6156055E2,0E0,0E0,0E0,0E0,0E0,0E0,0E0,0E0,0E0,0E0,0E0,0E0,0E0,0E0,0E0,0E0],"parents":[2147483647,0,0,1,1,2,2,3,3,4,4,5,5,6,6,7,7,8,8,9,9,10,10,11,11,12,12,13,13,14,14],"right_children":[2,4,6,8,10,12,14,16,18,20,22,24,26,28,30,-1,-1,-1,-1,-1,-1,-1,-1,-1,-1,-1,-1,-1,-1,-1,-1],"split_conditions":[-2.8449502E-2,-5.769231E-1,5.983681E-1,-1.3043479E0,-2.3622048E-1,2.615519E-1,1.1E1,-8E0,-1.3E1,-1E1,-1.3392857E-1,3E0,1.1E1,1.8687431E0,1.1374408E0,-6.05972E-2,-4.3830954E-2,-4.9145006E-2,-3.2107737E-2,-2.8921986E-2,-1.842914E-2,-1.1940899E-2,-5.485558E-3,7.677782E-4,7.901035E-3,1.6577346E-2,2.6358E-2,2.5687456E-2,5.4676663E-2,4.4243243E-2,5.885607E-2],"split_indices":[7,7,7,7,7,7,4,4,4,4,7,4,4,7,7,0,0,0,0,0,0,0,0,0,0,0,0,0,0,0,0],"split_type":[0,0,0,0,0,0,0,0,0,0,0,0,0,0,0,0,0,0,0,0,0,0,0,0,0,0,0,0,0,0,0],"sum_hessian":[1.7514108E5,7.6258805E4,9.8882266E4,2.2570861E4,5.368794E4,7.435742E4,2.4524844E4,1.0801333E4,1.1769529E4,2.0209303E4,3.3478637E4,5.442763E4,1.9929797E4,6.5322603E3,1.7992584E4,9.206164E3,1.5951687E3,5.1224316E3,6.6470977E3,6.4185986E3,1.3790704E4,1.3105946E4,2.0372691E4,2.8691684E4,2.5735945E4,1.2130579E4,7.7992173E3,5.207109E3,1.325151E3,6.8655303E3,1.1127054E4],"tree_param":{"num_deleted":"0","num_feature":"12","num_nodes":"31","size_leaf_vector":"1"}},{"base_weights":[7.996683E-4,-3.8712505E-1,4.0848505E-1,-9.1480166E-1,-2.2001731E-1,2.0913891E-1,8.7774277E-1,-6.872964E-1,-1.1516271E0,-3.8976437E-1,-1.0018344E-1,1.09100245E-1,3.7402466E-1,7.0074487E-1,1.1413786E0,-4.4617828E-2,-2.8155828E-2,-6.0548108E-2,-5.0741225E-2,-3.801406E-2,-1.5827043E-2,-3.859371E-3,-2.1485306E-2,2.6225408E-3,7.724441E-3,1.4250512E-2,3.8369223E-2,2.7460784E-2,5.0186645E-2,5.046476E-2,5.94089E-2],"categories":[],"categories_nodes":[],"categories_segments":[],"categories_sizes":[],"default_left":[0,0,0,0,0,0,0,0,0,0,0,0,0,0,0,0,0,0,0,0,0,0,0,0,0,0,0,0,0,0,0],"id":20,"left_children":[1,3,5,7,9,11,13,15,17,19,21,23,25,27,29,-1,-1,-1,-1,-1,-1,-1,-1,-1,-1,-1,-1,-1,-1,-1,-1],"loss_changes":[2.7456416E4,7.844213E3,7.9182217E3,1.1520137E3,1.3743325E3,9.79949E2,1.176873E3,2.7744824E2,8.385449E1,7.583115E2,3.000956E2,9.507214E1,7.853042E2,6.928345E2,6.145703E1,0E0,0E0,0E0,0E0,0E0,0E0,0E0,0E0,0E0,0E0,0E0,0E0,0E0,0E0,0E0,0E0],"parents":[2147483647,0,0,1,1,2,2,3,3,4,4,5,5,6,6,7,7,8,8,9,9,10,10,11,11,12,12,13,13,14,14],"right_children":[2,4,6,8,10,12,14,16,18,20,22,24,26,28,30,-1,-1,-1,-1,-1,-1,-1,-1,-1,-1,-1,-1,-1,-1,-1,-1],"split_conditions":[1E0,-1E1,1.1E1,8.1E1,-4E0,6E0,8.9E1,-1.5E1,-1.4E1,6.45E2,1.02E2,3E0,4E0,1.7E1,1.5E1,-4.4617828E-2,-2.8155828E-2,-6.0548108E-2,-5.0741225E-2,-3.801406E-2,-1.5827043E-2,-3.859371E-3,-2.1485306E-2,2.6225408E-3,7.724441E-3,1.4250512E-2,3.8369223E-2,2.7460784E-2,5.0186645E-2,5.046476E-2,5.94089E-2],"split_indices":[4,4,4,3,4,4,2,4,4,1,3,4,0,4,4,0,0,0,0,0,0,0,0,0,0,0,0,0,0,0,0],"split_type":[0,0,0,0,0,0,0,0,0,0,0,0,0,0,0,0,0,0,0,0,0,0,0,0,0,0,0,0,0,0,0],"sum_hessian":[1.7360662E5,8.895928E4,8.4647336E4,2.1395178E4,6.75641E4,5.9410508E4,2.5236828E4,1.0914303E4,1.0480875E4,2.7958328E4,3.9605777E4,3.6977414E4,2.2433096E4,1.510165E4,1.0135178E4,4.1142275E3,6.800075E3,7.3047466E3,3.176129E3,4.611977E3,2.3346352E4,3.7023305E4,2.5824695E3,1.6449262E4,2.0528152E4,1.8294834E4,4.1382603E3,1.0068863E4,5.0327876E3,2.6574692E3,7.477709E3],"tree_param":{"num_deleted":"0","num_feature":"12","num_nodes":"31","size_leaf_vector":"1"}},{"base_weights":[2.203268E-4,-4.770823E-1,3.0473402E-1,-9.794281E-1,-2.8855416E-1,1.337751E-1,9.070265E-1,-1.0931644E0,-7.1081764E-1,-4.9918255E-1,-2.0190729E-1,5.509324E-2,3.6145514E-1,6.948395E-1,1.0942817E0,-5.9285086E-2,-4.660665E-2,-5.655959E-2,-3.0454902E-2,-2.8981004E-2,-1.7969634E-2,-1.2943054E-2,-6.307415E-3,-1.5157243E-4,6.9155334E-3,1.2387532E-2,2.1902127E-2,2.771064E-2,5.2696913E-2,4.8254307E-2,5.8782674E-2],"categories":[],"categories_nodes":[],"categories_segments":[],"categories_sizes":[],"default_left":[0,0,0,0,0,0,0,0,0,0,0,0,0,0,0,0,0,0,0,0,0,0,0,0,0,0,0,0,0,0,0],"id":21,"left_children":[1,3,5,7,9,11,13,15,17,19,21,23,25,27,29,-1,-1,-1,-1,-1,-1,-1,-1,-1,-1,-1,-1,-1,-1,-1,-1],"loss_changes":[2.5004303E4,6.3456455E3,1.0814276E4,5.578281E2,8.8910547E2,1.4655134E3,9.218633E2,1.9028223E2,2.3200977E2,1.5946802E2,1.4892712E2,2.940833E2,1.828562E2,5.492627E2,1.2852148E2,0E0,0E0,0E0,0E0,0E0,0E0,0E0,0E0,0E0,0E0,0E0,0E0,0E0,0E0,0E0,0E0],"parents":[2147483647,0,0,1,1,2,2,3,3,4,4,5,5,6,6,7,7,8,8,9,9,10,10,11,11,12,12,13,13,14,14],"right_children":[2,4,6,8,10,12,14,16,18,20,22,24,26,28,30,-1,-1,-1,-1,-1,-1,-1,-1,-1,-1,-1,-1,-1,-1,-1,-1],"split_conditions":[-6.514658E-2,-6.9284064E-1,5.983681E-1,-1E1,-3.4416825E-1,7E0,1.5E1,-1.2371134E0,-2.178771E0,-8E0,-1.4888337E-1,7.702182E-2,3.0112922E-1,1.5789474E0,1.2949641E0,-5.9285086E-2,-4.660665E-2,-5.655959E-2,-3.0454902E-2,-2.8981004E-2,-1.7969634E-2,-1.2943054E-2,-6.307415E-3,-1.5157243E-4,6.9155334E-3,1.2387532E-2,2.1902127E-2,2.771064E-2,5.2696913E-2,4.8254307E-2,5.8782674E-2],"split_indices":[7,7,7,4,7,4,4,7,7,4,7,7,7,7,7,0,0,0,0,0,0,0,0,0,0,0,0,0,0,0,0],"split_type":[0,0,0,0,0,0,0,0,0,0,0,0,0,0,0,0,0,0,0,0,0,0,0,0,0,0,0,0,0,0,0],"sum_hessian":[1.720319E5,6.7005375E4,1.0502652E5,1.8283521E4,4.8721855E4,8.180706E4,2.3219467E4,1.2842582E4,5.4409395E3,1.419958E4,3.4522277E4,6.079776E4,2.10093E4,1.0887297E4,1.233217E4,8.1517764E3,4.6908057E3,1.0580875E3,4.382852E3,9.011221E3,5.1883594E3,1.9705639E4,1.4816636E4,3.5796223E4,2.500154E4,8.457387E3,1.2551913E4,7.8253545E3,3.0619426E3,4.770626E3,7.5615435E3],"tree_param":{"num_deleted":"0","num_feature":"12","num_nodes":"31","size_leaf_vector":"1"}},{"base_weights":[-3.0062397E-4,-3.5560843E-1,3.7450087E-1,-2.0046356E-1,-8.669015E-1,1.872268E-1,8.3500713E-1,-9.214591E-2,-3.5536516E-1,-6.667108E-1,-1.1500016E0,9.630908E-2,3.386776E-1,6.567616E-1,1.1109688E0,-3.5520473E-3,-1.9931436E-2,-3.6025885E-2,-1.4250661E-2,-2.6212562E-2,-4.4473242E-2,-4.84319E-2,-5.9165247E-2,2.5283713E-2,4.5614275E-3,4.037426E-2,1.3469457E-2,2.5580272E-2,4.7860734E-2,4.5264866E-2,5.7216104E-2],"categories":[],"categories_nodes":[],"categories_segments":[],"categories_sizes":[],"default_left":[0,0,0,0,0,0,0,0,0,0,0,0,0,0,0,0,0,0,0,0,0,0,0,0,0,0,0,0,0,0,0],"id":22,"left_children":[1,3,5,7,9,11,13,15,17,19,21,23,25,27,29,-1,-1,-1,-1,-1,-1,-1,-1,-1,-1,-1,-1,-1,-1,-1,-1],"loss_changes":[2.2715617E4,6.9458965E3,7.158782E3,1.1271794E3,1.1545127E3,8.125598E2,1.1797188E3,2.5570917E2,7.099883E2,3.785332E2,4.9845703E1,7.665198E1,7.188552E2,6.355137E2,6.3558594E1,0E0,0E0,0E0,0E0,0E0,0E0,0E0,0E0,0E0,0E0,0E0,0E0,0E0,0E0,0E0,0E0],"parents":[2147483647,0,0,1,1,2,2,3,3,4,4,5,5,6,6,7,7,8,8,9,9,10,10,11,11,12,12,13,13,14,14],"right_children":[2,4,6,8,10,12,14,16,18,20,22,24,26,28,30,-1,-1,-1,-1,-1,-1,-1,-1,-1,-1,-1,-1,-1,-1,-1,-1],"split_conditions":[1E0,1.1E1,1.1E1,5E0,8.7E1,6E0,8.9E1,1.02E2,6.45E2,1.6E1,1.3E1,1.16E2,5.59E2,1.7E1,1.3E1,-3.5520473E-3,-1.9931436E-2,-3.6025885E-2,-1.4250661E-2,-2.6212562E-2,-4.4473242E-2,-4.84319E-2,-5.9165247E-2,2.5283713E-2,4.5614275E-3,4.037426E-2,1.3469457E-2,2.5580272E-2,4.7860734E-2,4.5264866E-2,5.7216104E-2],"split_indices":[8,5,5,5,3,5,2,3,1,5,5,1,1,5,5,0,0,0,0,0,0,0,0,0,0,0,0,0,0,0,0],"split_type":[0,0,0,0,0,0,0,0,0,0,0,0,0,0,0,0,0,0,0,0,0,0,0,0,0,0,0,0,0,0,0],"sum_hessian":[1.7057422E5,8.756427E4,8.3009945E4,6.7180625E4,2.0383646E4,5.901267E4,2.3997271E4,3.953599E4,2.7644637E4,1.1942215E4,8.441432E3,3.687675E4,2.213592E4,1.4582021E4,9.415251E3,3.699002E4,2.545969E3,4.464257E3,2.318038E4,7.2859375E3,4.656277E3,1.3142638E3,7.127168E3,4.508503E2,3.64259E4,2.8489822E3,1.9286938E4,9.833784E3,4.7482373E3,1.31772E3,8.097531E3],"tree_param":{"num_deleted":"0","num_feature":"12","num_nodes":"31","size_leaf_vector":"1"}},{"base_weights":[3.3701936E-4,-2.0348565E-1,6.151398E-1,-7.7425855E-1,-4.427046E-2,4.265379E-1,1.0286474E0,-1.0275587E0,-5.6114364E-1,-1.9874439E-1,5.1097292E-2,3.5036764E-1,7.6513535E-1,5.485378E-1,1.0765252E0,-3.8376246E-2,-5.610714E-2,-2.312593E-2,-3.8327534E-2,-1.3863157E-2,-6.7576654E-3,8.379919E-5,6.0719657E-3,7.874674E-3,1.9941332E-2,2.7633315E-2,4.468963E-2,1.1175245E-2,4.2214703E-2,4.7997363E-2,5.7254273E-2],"categories":[],"categories_nodes":[],"categories_segments":[],"categories_sizes":[],"default_left":[0,0,0,0,0,0,0,0,0,0,0,0,0,0,0,0,0,0,0,0,0,0,0,0,0,0,0,0,0,0,0],"id":23,"left_children":[1,3,5,7,9,11,13,15,17,19,21,23,25,27,29,-1,-1,-1,-1,-1,-1,-1,-1,-1,-1,-1,-1,-1,-1,-1,-1],"loss_changes":[2.120226E4,1.1547582E4,3.2849785E3,1.4955254E3,1.4637145E3,7.4594727E2,3.0271582E2,3.1056738E2,3.046045E2,1.8932983E2,2.1356062E2,2.2071509E2,1.4472925E2,1.1502899E2,9.479199E1,0E0,0E0,0E0,0E0,0E0,0E0,0E0,0E0,0E0,0E0,0E0,0E0,0E0,0E0,0E0,0E0],"parents":[2147483647,0,0,1,1,2,2,3,3,4,4,5,5,6,6,7,7,8,8,9,9,10,10,11,11,12,12,13,13,14,14],"right_children":[2,4,6,8,10,12,14,16,18,20,22,24,26,28,30,-1,-1,-1,-1,-1,-1,-1,-1,-1,-1,-1,-1,-1,-1,-1,-1],"split_conditions":[2.5464192E-1,-4.0201005E-1,1.0452962E0,-9.677419E-1,-6.514658E-2,1.5E1,7E0,1.1E1,1.4E1,-1.9512194E-1,3E0,6E0,5.983681E-1,1.5789474E0,1.7607224E0,-3.8376246E-2,-5.610714E-2,-2.312593E-2,-3.8327534E-2,-1.3863157E-2,-6.7576654E-3,8.379919E-5,6.0719657E-3,7.874674E-3,1.9941332E-2,2.7633315E-2,4.468963E-2,1.1175245E-2,4.2214703E-2,4.7997363E-2,5.7254273E-2],"split_indices":[7,7,7,7,7,5,5,5,5,7,5,5,7,7,7,0,0,0,0,0,0,0,0,0,0,0,0,0,0,0,0],"split_type":[0,0,0,0,0,0,0,0,0,0,0,0,0,0,0,0,0,0,0,0,0,0,0,0,0,0,0,0,0,0,0],"sum_hessian":[1.6919545E5,1.2706941E5,4.2126055E4,2.7713828E4,9.935558E4,2.8932088E4,1.3193966E4,1.2661288E4,1.5052541E4,3.7924875E4,6.14307E4,2.3620498E4,5.3115903E3,1.1975547E3,1.1996411E4,3.3794639E3,9.281824E3,1.017184E4,4.880701E3,1.696906E4,2.0955816E4,3.6081426E4,2.5349275E4,4.74378E3,1.8876717E4,2.0052856E3,3.3063044E3,5.713753E2,6.2617944E2,4.4480586E3,7.5483525E3],"tree_param":{"num_deleted":"0","num_feature":"12","num_nodes":"31","size_leaf_vector":"1"}},{"base_weights":[-3.006392E-4,-1.9280733E-1,6.012077E-1,-7.5003433E-1,-4.1727204E-2,4.140742E-1,1.0129712E0,-1.0089535E0,-5.368606E-1,-1.7057355E-1,6.692641E-2,3.5959473E-1,8.593067E-1,5.1561546E-1,1.0637877E0,-5.4387778E-2,-3.2972824E-2,-3.7360962E-2,-2.1847954E-2,-1.2133206E-2,-4.86688E-3,3.739055E-3,-1.9251844E-2,1.4039625E-2,2.4021396E-2,3.8471308E-2,5.3068854E-2,9.90603E-3,4.0392067E-2,4.4706937E-2,5.571046E-2],"categories":[],"categories_nodes":[],"categories_segments":[],"categories_sizes":[],"default_left":[0,0,0,0,0,0,0,0,0,0,0,0,0,0,0,0,0,0,0,0,0,0,0,0,0,0,0,0,0,0,0],"id":24,"left_children":[1,3,5,7,9,11,13,15,17,19,21,23,25,27,29,-1,-1,-1,-1,-1,-1,-1,-1,-1,-1,-1,-1,-1,-1,-1,-1],"loss_changes":[1.9428254E4,1.0700337E4,3.13404E3,1.4958389E3,1.3998909E3,6.781216E2,3.2067773E2,3.364082E2,3.121919E2,2.4150049E2,1.92613E2,2.3717041E2,5.4552246E1,1.0933554E2,9.763672E1,0E0,0E0,0E0,0E0,0E0,0E0,0E0,0E0,0E0,0E0,0E0,0E0,0E0,0E0,0E0,0E0],"parents":[2147483647,0,0,1,1,2,2,3,3,4,4,5,5,6,6,7,7,8,8,9,9,10,10,11,11,12,12,13,13,14,14],"right_children":[2,4,6,8,10,12,14,16,18,20,22,24,26,28,30,-1,-1,-1,-1,-1,-1,-1,-1,-1,-1,-1,-1,-1,-1,-1,-1],"split_conditions":[2.615519E-1,-4.0201005E-1,1.0452962E0,-9.677419E-1,-2.8449502E-2,1.7E1,7E0,-8E0,-1.3E1,-1.4888337E-1,1.02E2,1.1E1,2.1E1,1.5789474E0,1.3E1,-5.4387778E-2,-3.2972824E-2,-3.7360962E-2,-2.1847954E-2,-1.2133206E-2,-4.86688E-3,3.739055E-3,-1.9251844E-2,1.4039625E-2,2.4021396E-2,3.8471308E-2,5.3068854E-2,9.90603E-3,4.0392067E-2,4.4706937E-2,5.571046E-2],"split_indices":[7,7,7,7,7,4,4,4,4,7,3,4,4,7,4,0,0,0,0,0,0,0,0,0,0,0,0,0,0,0,0],"split_type":[0,0,0,0,0,0,0,0,0,0,0,0,0,0,0,0,0,0,0,0,0,0,0,0,0,0,0,0,0,0,0],"sum_hessian":[1.6778038E5,1.2710301E5,4.0677363E4,2.7109908E4,9.999309E4,2.796855E4,1.27088125E4,1.2239806E4,1.4870102E4,4.574548E4,5.4247617E4,2.4920982E4,3.047569E3,1.1791611E3,1.1529651E4,9.986098E3,2.2537078E3,4.785978E3,1.0084124E4,2.3051846E4,2.2693633E4,5.3321773E4,9.258466E2,1.5085917E4,9.835064E3,2.112666E3,9.3490295E2,5.659504E2,6.132107E2,2.6459124E3,8.883738E3],"tree_param":{"num_deleted":"0","num_feature":"12","num_nodes":"31","size_leaf_vector":"1"}},{"base_weights":[1.8904136E-3,-1.8209165E-1,5.837421E-1,-7.848399E-1,-5.1091608E-2,4.0031314E-1,9.9699533E-1,-1.0606108E0,-6.073646E-1,-2.0304473E-1,5.1315576E-2,3.2752812E-1,7.230505E-1,6.5927327E-1,1.0762413E0,-5.772349E-2,-4.298512E-2,-3.717135E-2,-2.1719998E-2,-1.522614E-2,-6.908893E-3,6.506931E-5,5.978254E-3,7.0305923E-3,1.8711913E-2,2.7693266E-2,4.3860625E-2,2.4109384E-2,5.0561834E-2,4.6785068E-2,5.625694E-2],"categories":[],"categories_nodes":[],"categories_segments":[],"categories_sizes":[],"default_left":[0,0,0,0,0,0,0,0,0,0,0,0,0,0,0,0,0,0,0,0,0,0,0,0,0,0,0,0,0,0,0],"id":25,"left_children":[1,3,5,7,9,11,13,15,17,19,21,23,25,27,29,-1,-1,-1,-1,-1,-1,-1,-1,-1,-1,-1,-1,-1,-1,-1,-1],"loss_changes":[1.7798027E4,9.97396E3,3.0272754E3,1.1031074E3,1.6147231E3,6.496177E2,3.2788672E2,1.6550098E2,3.2265186E2,2.7495825E2,2.1159895E2,1.9705176E2,1.322732E2,1.451123E2,6.7274414E1,0E0,0E0,0E0,0E0,0E0,0E0,0E0,0E0,0E0,0E0,0E0,0E0,0E0,0E0,0E0,0E0],"parents":[2147483647,0,0,1,1,2,2,3,3,4,4,5,5,6,6,7,7,8,8,9,9,10,10,11,11,12,12,13,13,14,14],"right_children":[2,4,6,8,10,12,14,16,18,20,22,24,26,28,30,-1,-1,-1,-1,-1,-1,-1,-1,-1,-1,-1,-1,-1,-1,-1,-1],"split_conditions":[2.615519E-1,-4.8894063E-1,1.0452962E0,-1.3043479E0,-6.514658E-2,1.5E1,1E1,-1.2E1,-1E1,-2.3622048E-1,7.702182E-2,6E0,6.573705E-1,2.1163013E0,1.5E0,-5.772349E-2,-4.298512E-2,-3.717135E-2,-2.1719998E-2,-1.522614E-2,-6.908893E-3,6.506931E-5,5.978254E-3,7.0305923E-3,1.8711913E-2,2.7693266E-2,4.3860625E-2,2.4109384E-2,5.0561834E-2,4.6785068E-2,5.625694E-2],"split_indices":[7,7,7,7,7,4,4,4,4,7,7,4,7,7,7,0,0,0,0,0,0,0,0,0,0,0,0,0,0,0,0],"split_type":[0,0,0,0,0,0,0,0,0,0,0,0,0,0,0,0,0,0,0,0,0,0,0,0,0,0,0,0,0,0,0],"sum_hessian":[1.662566E5,1.2631603E5,3.9940566E4,2.255099E4,1.0376504E5,2.7663611E4,1.2276957E4,8.82823E3,1.3722761E4,4.1776113E4,6.1988926E4,2.2574527E4,5.0890835E3,2.3350393E3,9.941917E3,6.0139385E3,2.8142917E3,7.6788823E3,6.0438784E3,1.628932E4,2.5486793E4,3.577415E4,2.6214777E4,4.514244E3,1.8060283E4,2.4285083E3,2.6605752E3,1.5550214E3,7.800178E2,2.5714036E3,7.3705137E3],"tree_param":{"num_deleted":"0","num_feature":"12","num_nodes":"31","size_leaf_vector":"1"}},{"base_weights":[9.6224895E-4,-1.6512111E-1,6.013694E-1,-7.628583E-1,-4.2201206E-2,4.1715458E-1,9.937984E-1,-1.0414577E0,-5.871426E-1,-1.9482736E-1,5.1918034E-2,3.549852E-1,8.4730697E-1,5.597529E-1,1.0541168E0,-5.4863967E-2,-3.29173E-2,-3.6258172E-2,-2.0645695E-2,-1.588462E-2,-7.1693747E-3,-1.8020761E-4,6.2209633E-3,6.9144615E-3,1.999052E-2,3.7806593E-2,5.2230317E-2,1.874148E-2,4.9817607E-2,4.6850238E-2,5.5798657E-2],"categories":[],"categories_nodes":[],"categories_segments":[],"categories_sizes":[],"default_left":[0,0,0,0,0,0,0,0,0,0,0,0,0,0,0,0,0,0,0,0,0,0,0,0,0,0,0,0,0,0,0],"id":26,"left_children":[1,3,5,7,9,11,13,15,17,19,21,23,25,27,29,-1,-1,-1,-1,-1,-1,-1,-1,-1,-1,-1,-1,-1,-1,-1,-1],"loss_changes":[1.6456588E4,9.498125E3,2.5846582E3,1.0788086E3,1.5402917E3,6.505332E2,2.9847266E2,1.8163086E2,3.249077E2,2.584496E2,2.6698724E2,2.0650806E2,5.44812E1,1.123251E2,7.159961E1,0E0,0E0,0E0,0E0,0E0,0E0,0E0,0E0,0E0,0E0,0E0,0E0,0E0,0E0,0E0,0E0],"parents":[2147483647,0,0,1,1,2,2,3,3,4,4,5,5,6,6,7,7,8,8,9,9,10,10,11,11,12,12,13,13,14,14],"right_children":[2,4,6,8,10,12,14,16,18,20,22,24,26,28,30,-1,-1,-1,-1,-1,-1,-1,-1,-1,-1,-1,-1,-1,-1,-1,-1],"split_conditions":[3.0112922E-1,-4.8894063E-1,1.0873146E0,-1.3043479E0,-6.779661E-2,1.7E1,8E0,-7E0,-1E1,-7E0,3E0,6E0,2.1E1,2.25E0,1.7607224E0,-5.4863967E-2,-3.29173E-2,-3.6258172E-2,-2.0645695E-2,-1.588462E-2,-7.1693747E-3,-1.8020761E-4,6.2209633E-3,6.9144615E-3,1.999052E-2,3.7806593E-2,5.2230317E-2,1.874148E-2,4.9817607E-2,4.6850238E-2,5.5798657E-2],"split_indices":[7,7,7,7,7,4,4,4,4,4,4,4,4,7,7,0,0,0,0,0,0,0,0,0,0,0,0,0,0,0,0],"split_type":[0,0,0,0,0,0,0,0,0,0,0,0,0,0,0,0,0,0,0,0,0,0,0,0,0,0,0,0,0,0,0],"sum_hessian":[1.6502986E5,1.2927172E5,3.575815E4,2.204853E4,1.0722319E5,2.4336242E4,1.1421904E4,8.525814E3,1.3522715E4,4.0899098E4,6.632409E4,2.1264707E4,3.0715352E3,1.3948661E3,1.0027038E4,7.439912E3,1.0859027E3,7.543625E3,5.97909E3,1.2068382E4,2.8830717E4,3.7560684E4,2.8763406E4,3.6455083E3,1.76192E4,2.1040527E3,9.674826E2,9.811533E2,4.1371274E2,3.4711946E3,6.5558433E3],"tree_param":{"num_deleted":"0","num_feature":"12","num_nodes":"31","size_leaf_vector":"1"}},{"base_weights":[-3.910989E-4,-1.5890917E-1,5.8003473E-1,-6.878588E-1,-2.8232705E-2,3.9745852E-1,9.7948456E-1,-9.781116E-1,-4.9468893E-1,-1.4564496E-1,6.468765E-2,3.3813092E-1,8.151955E-1,6.443225E-1,1.0590888E0,-5.4126002E-2,-3.4715407E-2,-3.4973927E-2,-1.9692002E-2,-1.0554576E-2,-3.9744987E-3,3.6048254E-3,-1.7938593E-2,5.994394E-3,1.917442E-2,3.6189087E-2,5.0783545E-2,2.1532474E-2,4.683779E-2,4.575827E-2,5.5158354E-2],"categories":[],"categories_nodes":[],"categories_segments":[],"categories_sizes":[],"default_left":[0,0,0,0,0,0,0,0,0,0,0,0,0,0,0,0,0,0,0,0,0,0,0,0,0,0,0,0,0,0,0],"id":27,"left_children":[1,3,5,7,9,11,13,15,17,19,21,23,25,27,29,-1,-1,-1,-1,-1,-1,-1,-1,-1,-1,-1,-1,-1,-1,-1,-1],"loss_changes":[1.5065436E4,8.890009E3,2.5613203E3,1.4281006E3,1.1252272E3,5.97218E2,2.9327734E2,3.009043E2,3.157163E2,1.9725671E2,1.8065494E2,2.0894287E2,5.4196655E1,1.3188806E2,5.546289E1,0E0,0E0,0E0,0E0,0E0,0E0,0E0,0E0,0E0,0E0,0E0,0E0,0E0,0E0,0E0,0E0],"parents":[2147483647,0,0,1,1,2,2,3,3,4,4,5,5,6,6,7,7,8,8,9,9,10,10,11,11,12,12,13,13,14,14],"right_children":[2,4,6,8,10,12,14,16,18,20,22,24,26,28,30,-1,-1,-1,-1,-1,-1,-1,-1,-1,-1,-1,-1,-1,-1,-1,-1],"split_conditions":[3.0112922E-1,-4.0201005E-1,1.0873146E0,-1.0619469E0,-2.8449502E-2,1.7E1,1E1,-1E1,-1.3E1,-1.4888337E-1,1.02E2,6E0,2.1E1,1.8687431E0,1.5E0,-5.4126002E-2,-3.4715407E-2,-3.4973927E-2,-1.9692002E-2,-1.0554576E-2,-3.9744987E-3,3.6048254E-3,-1.7938593E-2,5.994394E-3,1.917442E-2,3.6189087E-2,5.0783545E-2,2.1532474E-2,4.683779E-2,4.575827E-2,5.5158354E-2],"split_indices":[7,7,7,7,7,4,4,4,4,7,3,4,4,7,7,0,0,0,0,0,0,0,0,0,0,0,0,0,0,0,0],"split_type":[0,0,0,0,0,0,0,0,0,0,0,0,0,0,0,0,0,0,0,0,0,0,0,0,0,0,0,0,0,0,0],"sum_hessian":[1.6373852E5,1.2861394E5,3.512458E4,2.547846E4,1.0313548E5,2.4107691E4,1.1016888E4,1.0179262E4,1.52992E4,4.556275E4,5.7572727E4,2.111125E4,2.99644E3,2.1161675E3,8.900721E3,7.439524E3,2.7397375E3,5.046186E3,1.0253014E4,2.2902908E4,2.2659844E4,5.6583566E4,9.89158E2,3.6332173E3,1.7478033E4,2.061182E3,9.352582E2,1.2241713E3,8.9199615E2,2.091936E3,6.808784E3],"tree_param":{"num_deleted":"0","num_feature":"12","num_nodes":"31","size_leaf_vector":"1"}},{"base_weights":[9.812809E-4,-1.5059774E-1,5.62884E-1,-7.9226965E-1,-4.9584858E-2,3.7782776E-1,9.5403033E-1,-1.0703508E0,-6.352757E-1,-2.3049112E-1,2.8969156E-2,3.242701E-1,7.8071415E-1,6.4345884E-1,1.0492046E0,-5.5584855E-2,-3.745891E-2,-4.280517E-2,-2.350068E-2,-1.906257E-2,-8.987639E-3,-1.6812066E-3,4.958706E-3,6.111151E-3,1.8316988E-2,3.44683E-2,4.960535E-2,2.224643E-2,4.7528386E-2,4.583922E-2,5.4731067E-2],"categories":[],"categories_nodes":[],"categories_segments":[],"categories_sizes":[],"default_left":[0,0,0,0,0,0,0,0,0,0,0,0,0,0,0,0,0,0,0,0,0,0,0,0,0,0,0,0,0,0,0],"id":28,"left_children":[1,3,5,7,9,11,13,15,17,19,21,23,25,27,29,-1,-1,-1,-1,-1,-1,-1,-1,-1,-1,-1,-1,-1,-1,-1,-1],"loss_changes":[1.38329795E4,8.290517E3,2.4971914E3,7.5880273E2,1.5704724E3,5.05188E2,3.268584E2,8.25083E1,4.054746E2,2.5586584E2,3.3860556E2,1.757146E2,5.2377563E1,1.582091E2,4.999707E1,0E0,0E0,0E0,0E0,0E0,0E0,0E0,0E0,0E0,0E0,0E0,0E0,0E0,0E0,0E0,0E0],"parents":[2147483647,0,0,1,1,2,2,3,3,4,4,5,5,6,6,7,7,8,8,9,9,10,10,11,11,12,12,13,13,14,14],"right_children":[2,4,6,8,10,12,14,16,18,20,22,24,26,28,30,-1,-1,-1,-1,-1,-1,-1,-1,-1,-1,-1,-1,-1,-1,-1,-1],"split_conditions":[3.0112922E-1,-5.970149E-1,1.0452962E0,-1.6551725E0,-1.2931034E-1,1.7E1,1.1E1,-7E0,-1.3E1,-9E0,2E0,6E0,2.1E1,1.8687431E0,1.5E0,-5.5584855E-2,-3.745891E-2,-4.280517E-2,-2.350068E-2,-1.906257E-2,-8.987639E-3,-1.6812066E-3,4.958706E-3,6.111151E-3,1.8316988E-2,3.44683E-2,4.960535E-2,2.224643E-2,4.7528386E-2,4.583922E-2,5.4731067E-2],"split_indices":[7,7,7,7,7,4,4,4,4,4,4,4,4,7,7,0,0,0,0,0,0,0,0,0,0,0,0,0,0,0,0],"split_type":[0,0,0,0,0,0,0,0,0,0,0,0,0,0,0,0,0,0,0,0,0,0,0,0,0,0,0,0,0,0,0],"sum_hessian":[1.6240903E5,1.2790585E5,3.450318E4,1.7395598E4,1.1051025E5,2.3423293E4,1.1079888E4,6.2749863E3,1.1120612E4,3.345742E4,7.705283E4,2.0676473E4,2.7468208E3,2.6007874E3,8.479101E3,5.557126E3,7.178606E2,4.758284E3,6.362328E3,8.423101E3,2.503432E4,4.073493E4,3.63179E4,3.5639363E3,1.7112537E4,1.9209789E3,8.2584186E2,1.5811216E3,1.01966583E3,2.1708396E3,6.3082607E3],"tree_param":{"num_deleted":"0","num_feature":"12","num_nodes":"31","size_leaf_vector":"1"}},{"base_weights":[-2.1349944E-4,-1.3451242E-1,5.8972555E-1,-6.5168524E-1,-1.6389266E-2,4.0787143E-1,9.612147E-1,-1.0024331E0,-4.9043792E-1,-1.3345863E-1,7.003557E-2,3.404144E-1,7.887801E-1,6.088674E-1,1.0452142E0,-5.5555113E-2,-3.9045267E-2,-3.511354E-2,-1.9066231E-2,-1.0697282E-2,-4.342749E-3,2.0705997E-3,9.965635E-3,3.259542E-3,1.8890237E-2,3.471757E-2,4.9574174E-2,2.0729868E-2,4.7657948E-2,4.5022093E-2,5.4189563E-2],"categories":[],"categories_nodes":[],"categories_segments":[],"categories_sizes":[],"default_left":[0,0,0,0,0,0,0,0,0,0,0,0,0,0,0,0,0,0,0,0,0,0,0,0,0,0,0,0,0,0,0],"id":29,"left_children":[1,3,5,7,9,11,13,15,17,19,21,23,25,27,29,-1,-1,-1,-1,-1,-1,-1,-1,-1,-1,-1,-1,-1,-1,-1,-1],"loss_changes":[1.2781237E4,8.027665E3,2.0205498E3,1.3813711E3,1.0823516E3,5.158164E2,2.903203E2,1.8435156E2,3.8665845E2,1.7040051E2,2.2772382E2,1.7558643E2,5.7137817E1,1.26342896E2,4.3350586E1,0E0,0E0,0E0,0E0,0E0,0E0,0E0,0E0,0E0,0E0,0E0,0E0,0E0,0E0,0E0,0E0],"parents":[2147483647,0,0,1,1,2,2,3,3,4,4,5,5,6,6,7,7,8,8,9,9,10,10,11,11,12,12,13,13,14,14],"right_children":[2,4,6,8,10,12,14,16,18,20,22,24,26,28,30,-1,-1,-1,-1,-1,-1,-1,-1,-1,-1,-1,-1,-1,-1,-1,-1],"split_conditions":[3.5502958E-1,-4.0201005E-1,1.1374408E0,-1.3043479E0,-2.8449502E-2,1.7E1,1E1,-1.2E1,-1.3E1,-1.9512194E-1,7E0,5E0,2.1E1,2.1163013E0,1.5E0,-5.5555113E-2,-3.9045267E-2,-3.511354E-2,-1.9066231E-2,-1.0697282E-2,-4.342749E-3,2.0705997E-3,9.965635E-3,3.259542E-3,1.8890237E-2,3.471757E-2,4.9574174E-2,2.0729868E-2,4.7657948E-2,4.5022093E-2,5.4189563E-2],"split_indices":[7,7,7,7,7,4,4,4,4,7,4,4,4,7,7,0,0,0,0,0,0,0,0,0,0,0,0,0,0,0,0],"split_type":[0,0,0,0,0,0,0,0,0,0,0,0,0,0,0,0,0,0,0,0,0,0,0,0,0,0,0,0,0,0,0],"sum_hessian":[1.6131986E5,1.3140617E5,2.9913686E4,2.4432041E4,1.0697413E5,2.0084076E4,9.829609E3,7.6929644E3,1.6739078E4,4.543213E4,6.1542E4,1.706402E4,3.0200574E3,1.8938491E3,7.9357603E3,5.1584844E3,2.53448E3,5.689002E3,1.1050075E4,1.6658469E4,2.877366E4,5.0387008E4,1.1154994E4,2.0412781E3,1.5022741E4,2.0633003E3,9.56757E2,1.2121086E3,6.817405E2,1.6748177E3,6.2609424E3],"tree_param":{"num_deleted":"0","num_feature":"12","num_nodes":"31","size_leaf_vector":"1"}},{"base_weights":[4.276905E-4,-1.3084345E-1,5.5468947E-1,-7.2010785E-1,-3.373189E-2,3.7169352E-1,9.370544E-1,-1.0765754E0,-5.838181E-1,-1.666251E-1,5.0497387E-2,3.120665E-1,7.6027477E-1,5.776741E-1,1.0277658E0,-5.5659514E-2,-3.8657837E-2,-4.2401414E-2,-2.2908706E-2,-1.6930413E-2,-6.602663E-3,3.8526824E-4,6.3176937E-3,-1.8842183E-3,1.6989088E-2,3.3221755E-2,4.888116E-2,2.047739E-2,4.8058867E-2,4.3723527E-2,5.3803958E-2],"categories":[],"categories_nodes":[],"categories_segments":[],"categories_sizes":[],"default_left":[0,0,0,0,0,0,0,0,0,0,0,0,0,0,0,0,0,0,0,0,0,0,0,0,0,0,0,0,0,0,0],"id":30,"left_children":[1,3,5,7,9,11,13,15,17,19,21,23,25,27,29,-1,-1,-1,-1,-1,-1,-1,-1,-1,-1,-1,-1,-1,-1,-1,-1],"loss_changes":[1.1645657E4,7.4053604E3,2.1442227E3,8.888955E2,1.2436196E3,4.8008496E2,3.2279395E2,5.5387207E1,4.3937988E2,2.5621936E2,2.2073705E2,1.7424487E2,5.678357E1,1.2865967E2,5.7710938E1,0E0,0E0,0E0,0E0,0E0,0E0,0E0,0E0,0E0,0E0,0E0,0E0,0E0,0E0,0E0,0E0],"parents":[2147483647,0,0,1,1,2,2,3,3,4,4,5,5,6,6,7,7,8,8,9,9,10,10,11,11,12,12,13,13,14,14],"right_children":[2,4,6,8,10,12,14,16,18,20,22,24,26,28,30,-1,-1,-1,-1,-1,-1,-1,-1,-1,-1,-1,-1,-1,-1,-1,-1],"split_conditions":[3.3676332E-1,-5.3892213E-1,1.0873146E0,-1.8848168E0,-6.514658E-2,1.7E1,1E1,-7E0,-1.5E1,-9E0,4E0,4E0,2.1E1,2.25E0,1.5E0,-5.5659514E-2,-3.8657837E-2,-4.2401414E-2,-2.2908706E-2,-1.6930413E-2,-6.602663E-3,3.8526824E-4,6.3176937E-3,-1.8842183E-3,1.6989088E-2,3.3221755E-2,4.888116E-2,2.047739E-2,4.8058867E-2,4.3723527E-2,5.3803958E-2],"split_indices":[7,7,7,7,7,4,4,4,4,4,4,4,4,7,7,0,0,0,0,0,0,0,0,0,0,0,0,0,0,0,0],"split_type":[0,0,0,0,0,0,0,0,0,0,0,0,0,0,0,0,0,0,0,0,0,0,0,0,0,0,0,0,0,0,0],"sum_hessian":[1.6005692E5,1.294086E5,3.0648316E4,1.8308402E4,1.11100195E5,2.0729406E4,9.91891E3,5.0619395E3,1.3246463E4,4.3099207E4,6.800099E4,1.797325E4,2.7561565E3,2.0005406E3,7.9183696E3,4.514488E3,5.4745135E2,4.2672783E3,8.979184E3,7.2121963E3,3.588701E4,4.3476312E4,2.4524676E4,1.3196484E3,1.6653602E4,1.9155519E3,8.4060455E2,1.3922512E3,6.082895E2,1.9021299E3,6.0162397E3],"tree_param":{"num_deleted":"0","num_feature":"12","num_nodes":"31","size_leaf_vector":"1"}},{"base_weights":[9.932303E-4,-1.1467621E-1,5.874987E-1,-7.525339E-1,-3.0087313E-2,4.0687162E-1,9.465362E-1,-1.0654528E0,-6.0978436E-1,-1.6932127E-1,5.539651E-2,3.0764088E-1,5.5491465E-1,7.69365E-1,1.0487324E0,-5.5560954E-2,-4.7756847E-2,-1.8651692E-2,-3.4786727E-2,-1.5882418E-2,-5.9218244E-3,5.82119E-4,7.663969E-3,2.2783358E-2,1.0103904E-2,3.475995E-2,1.3245602E-2,1.3238798E-2,4.549082E-2,4.8249993E-2,5.4574814E-2],"categories":[],"categories_nodes":[],"categories_segments":[],"categories_sizes":[],"default_left":[0,0,0,0,0,0,0,0,0,0,0,0,0,0,0,0,0,0,0,0,0,0,0,0,0,0,0,0,0,0,0],"id":31,"left_children":[1,3,5,7,9,11,13,15,17,19,21,23,25,27,29,-1,-1,-1,-1,-1,-1,-1,-1,-1,-1,-1,-1,-1,-1,-1,-1],"loss_changes":[1.0783539E4,7.16363E3,1.6977275E3,6.93751E2,1.3952476E3,2.557688E2,1.5786182E2,2.3519531E1,2.1702026E2,3.365332E2,3.110675E2,1.6293378E2,2.842002E2,2.2721509E2,1.8837402E1,0E0,0E0,0E0,0E0,0E0,0E0,0E0,0E0,0E0,0E0,0E0,0E0,0E0,0E0,0E0,0E0],"parents":[2147483647,0,0,1,1,2,2,3,3,4,4,5,5,6,6,7,7,8,8,9,9,10,10,11,11,12,12,13,13,14,14],"right_children":[2,4,6,8,10,12,14,16,18,20,22,24,26,28,30,-1,-1,-1,-1,-1,-1,-1,-1,-1,-1,-1,-1,-1,-1,-1,-1],"split_conditions":[3.9823008E-1,-6.185567E-1,1.1864407E0,-1.8848168E0,-6.779661E-2,6.779661E-1,1.8687431E0,-2.5714285E0,4.8E2,-3.4416825E-1,1.5665796E-1,5.3E1,8.4E1,3.29E2,2.7804878E0,-5.5560954E-2,-4.7756847E-2,-1.8651692E-2,-3.4786727E-2,-1.5882418E-2,-5.9218244E-3,5.82119E-4,7.663969E-3,2.2783358E-2,1.0103904E-2,3.475995E-2,1.3245602E-2,1.3238798E-2,4.549082E-2,4.8249993E-2,5.4574814E-2],"split_indices":[7,7,7,7,7,7,7,7,1,7,7,3,3,1,7,0,0,0,0,0,0,0,0,0,0,0,0,0,0,0,0],"split_type":[0,0,0,0,0,0,0,0,0,0,0,0,0,0,0,0,0,0,0,0,0,0,0,0,0,0,0,0,0,0,0],"sum_hessian":[1.5895169E5,1.3276822E5,2.6183475E4,1.5544469E4,1.1722374E5,1.7421217E4,8.762258E3,4.867668E3,1.0676801E4,4.4592156E4,7.2631586E4,1.0431942E4,6.989275E3,3.2084675E3,5.5537905E3,3.433965E3,1.4337029E3,2.8451484E3,7.8316523E3,1.1388855E4,3.32033E4,5.0195203E4,2.2436387E4,4.341177E3,6.0907656E3,4.7096553E3,2.2796196E3,6.9924146E2,2.509226E3,1.8855018E3,3.6682886E3],"tree_param":{"num_deleted":"0","num_feature":"12","num_nodes":"31","size_leaf_vector":"1"}},{"base_weights":[4.1306973E-4,-9.609857E-2,6.569393E-1,-7.7404577E-1,-2.1793231E-2,4.892412E-1,9.9669975E-1,-9.536183E-1,-5.327125E-1,-1.5348078E-1,8.200733E-2,3.772546E-1,8.212796E-1,7.057805E-1,1.0567474E0,-5.3873133E-2,-3.7707742E-2,-4.9720928E-2,-2.134653E-2,-1.565207E-2,-5.2220537E-3,1.547781E-3,9.378739E-3,2.8766622E-3,2.2383973E-2,3.6983166E-2,4.962442E-2,2.4797907E-2,4.6079103E-2,5.0411362E-2,5.5080116E-2],"categories":[],"categories_nodes":[],"categories_segments":[],"categories_sizes":[],"default_left":[0,0,0,0,0,0,0,0,0,0,0,0,0,0,0,0,0,0,0,0,0,0,0,0,0,0,0,0,0,0,0],"id":32,"left_children":[1,3,5,7,9,11,13,15,17,19,21,23,25,27,29,-1,-1,-1,-1,-1,-1,-1,-1,-1,-1,-1,-1,-1,-1,-1,-1],"loss_changes":[9.992023E3,6.925829E3,1.1510693E3,5.8802295E2,1.6937151E3,5.029292E2,1.15913086E2,1.9150342E2,2.826587E2,4.2733313E2,3.734273E2,2.2789197E2,4.694995E1,5.141443E1,1.0932129E1,0E0,0E0,0E0,0E0,0E0,0E0,0E0,0E0,0E0,0E0,0E0,0E0,0E0,0E0,0E0,0E0],"parents":[2147483647,0,0,1,1,2,2,3,3,4,4,5,5,6,6,7,7,8,8,9,9,10,10,11,11,12,12,13,13,14,14],"right_children":[2,4,6,8,10,12,14,16,18,20,22,24,26,28,30,-1,-1,-1,-1,-1,-1,-1,-1,-1,-1,-1,-1,-1,-1,-1,-1],"split_conditions":[5.1391864E-1,-6.9284064E-1,1.5E0,-1.2E1,-2.8449502E-2,1.7E1,1E1,-1.2371134E0,-2.178771E0,-3.4416825E-1,1.9543974E-1,6E0,7.8E1,2.25E0,3.0177515E0,-5.3873133E-2,-3.7707742E-2,-4.9720928E-2,-2.134653E-2,-1.565207E-2,-5.2220537E-3,1.547781E-3,9.378739E-3,2.8766622E-3,2.2383973E-2,3.6983166E-2,4.962442E-2,2.4797907E-2,4.6079103E-2,5.0411362E-2,5.5080116E-2],"split_indices":[7,7,7,4,7,4,4,7,7,7,7,4,2,7,7,0,0,0,0,0,0,0,0,0,0,0,0,0,0,0,0],"split_type":[0,0,0,0,0,0,0,0,0,0,0,0,0,0,0,0,0,0,0,0,0,0,0,0,0,0,0,0,0,0,0],"sum_hessian":[1.5769434E5,1.374845E5,2.0209848E4,1.3579394E4,1.2390511E5,1.3532803E4,6.677045E3,7.784277E3,5.7951167E3,5.4615793E4,6.928931E4,1.012132E4,3.4114822E3,1.1445714E3,5.5324736E3,4.7997637E3,2.9845132E3,1.078666E3,4.7164507E3,1.2838326E4,4.177747E4,4.6704586E4,2.258473E4,1.8273162E3,8.294004E3,2.3137996E3,1.0976826E3,5.819975E2,5.625739E2,2.6689321E3,2.8635415E3],"tree_param":{"num_deleted":"0","num_feature":"12","num_nodes":"31","size_leaf_vector":"1"}},{"base_weights":[1.8448421E-3,-8.243341E-2,6.964462E-1,-7.1609473E-1,-7.6221256E-3,4.7917217E-1,9.3233854E-1,-1.0438111E0,-5.720492E-1,-1.0999197E-1,1.1066091E-1,3.7810397E-1,9.350198E-1,7.60559E-1,1.0594107E0,-3.513749E-2,-5.4360062E-2,-2.1383736E-2,-4.2824704E-2,-1.2098714E-2,-3.0141713E-3,3.6695085E-3,1.2609216E-2,3.2310428E-3,2.3191428E-2,2.9110685E-2,4.9495768E-2,3.2913547E-2,4.588897E-2,5.1056832E-2,5.496924E-2],"categories":[],"categories_nodes":[],"categories_segments":[],"categories_sizes":[],"default_left":[0,0,0,0,0,0,0,0,0,0,0,0,0,0,0,0,0,0,0,0,0,0,0,0,0,0,0,0,0,0,0],"id":33,"left_children":[1,3,5,7,9,11,13,15,17,19,21,23,25,27,29,-1,-1,-1,-1,-1,-1,-1,-1,-1,-1,-1,-1,-1,-1,-1,-1],"loss_changes":[9.180675E3,6.629989E3,8.692949E2,6.965596E2,1.5146926E3,4.0670813E2,1.7676953E2,6.5950195E1,4.2102954E2,4.3992102E2,3.0609955E2,1.943612E2,3.0464966E1,5.5080444E1,6.027832E0,0E0,0E0,0E0,0E0,0E0,0E0,0E0,0E0,0E0,0E0,0E0,0E0,0E0,0E0,0E0,0E0],"parents":[2147483647,0,0,1,1,2,2,3,3,4,4,5,5,6,6,7,7,8,8,9,9,10,10,11,11,12,12,13,13,14,14],"right_children":[2,4,6,8,10,12,14,16,18,20,22,24,26,28,30,-1,-1,-1,-1,-1,-1,-1,-1,-1,-1,-1,-1,-1,-1,-1,-1],"split_conditions":[5.983681E-1,-6.185567E-1,1.5E1,-1.8848168E0,2.20022E-2,1.8687431E0,1.2949641E0,8E0,1.6E1,-2.5210086E-1,9E0,6E0,6E0,2E1,3.0177515E0,-3.513749E-2,-5.4360062E-2,-2.1383736E-2,-4.2824704E-2,-1.2098714E-2,-3.0141713E-3,3.6695085E-3,1.2609216E-2,3.2310428E-3,2.3191428E-2,2.9110685E-2,4.9495768E-2,3.2913547E-2,4.588897E-2,5.1056832E-2,5.496924E-2],"split_indices":[7,7,5,7,7,7,7,5,5,7,5,5,5,5,7,0,0,0,0,0,0,0,0,0,0,0,0,0,0,0,0],"split_type":[0,0,0,0,0,0,0,0,0,0,0,0,0,0,0,0,0,0,0,0,0,0,0,0,0,0,0,0,0,0,0],"sum_hessian":[1.5682598E5,1.398575E5,1.6968486E4,1.476737E4,1.25090125E5,8.834397E3,8.1340884E3,4.507092E3,1.0260278E4,6.7055766E4,5.803436E4,7.2326426E3,1.601755E3,3.461595E3,4.6724937E3,5.1062253E2,3.996469E3,6.8075186E3,3.45276E3,1.8344635E4,4.8711133E4,4.5937945E4,1.2096414E4,1.553491E3,5.6791514E3,2.1723334E2,1.3845217E3,2.100312E3,1.3612828E3,2.4005664E3,2.2719272E3],"tree_param":{"num_deleted":"0","num_feature":"12","num_nodes":"31","size_leaf_vector":"1"}},{"base_weights":[3.1056083E-4,-8.005737E-2,6.777196E-1,-7.373209E-1,-1.3104459E-2,4.6023613E-1,9.19527E-1,-4.3715015E-1,-8.9326227E-1,-1.3800044E-1,8.13673E-2,3.6122024E-1,9.176163E-1,7.451146E-1,1.0509478E0,-4.594755E-2,-1.6985813E-2,-5.1719733E-2,-3.4373228E-2,-1.4190159E-2,-4.526905E-3,1.8067204E-3,1.0175469E-2,2.3796845E-3,2.2386746E-2,2.6683966E-2,4.893338E-2,3.2164823E-2,4.5242738E-2,5.05027E-2,5.4698717E-2],"categories":[],"categories_nodes":[],"categories_segments":[],"categories_sizes":[],"default_left":[0,0,0,0,0,0,0,0,0,0,0,0,0,0,0,0,0,0,0,0,0,0,0,0,0,0,0,0,0,0,0],"id":34,"left_children":[1,3,5,7,9,11,13,15,17,19,21,23,25,27,29,-1,-1,-1,-1,-1,-1,-1,-1,-1,-1,-1,-1,-1,-1,-1,-1],"loss_changes":[8.483866E3,6.130246E3,8.6873193E2,6.024463E2,1.4917568E3,3.9382214E2,1.7857715E2,2.0647833E2,2.4543066E2,3.7675745E2,3.9768152E2,1.941474E2,3.5766724E1,5.416333E1,6.7421875E0,0E0,0E0,0E0,0E0,0E0,0E0,0E0,0E0,0E0,0E0,0E0,0E0,0E0,0E0,0E0,0E0],"parents":[2147483647,0,0,1,1,2,2,3,3,4,4,5,5,6,6,7,7,8,8,9,9,10,10,11,11,12,12,13,13,14,14],"right_children":[2,4,6,8,10,12,14,16,18,20,22,24,26,28,30,-1,-1,-1,-1,-1,-1,-1,-1,-1,-1,-1,-1,-1,-1,-1,-1],"split_conditions":[5.983681E-1,-6.9284064E-1,1.5E1,1.1E1,-2.8449502E-2,1.8687431E0,1.2949641E0,-2.178771E0,-1.2371134E0,-3.3333334E-1,7E0,6E0,6E0,2E1,3.0177515E0,-4.594755E-2,-1.6985813E-2,-5.1719733E-2,-3.4373228E-2,-1.4190159E-2,-4.526905E-3,1.8067204E-3,1.0175469E-2,2.3796845E-3,2.2386746E-2,2.6683966E-2,4.893338E-2,3.2164823E-2,4.5242738E-2,5.05027E-2,5.4698717E-2],"split_indices":[7,7,5,5,7,7,7,7,7,7,5,5,5,5,7,0,0,0,0,0,0,0,0,0,0,0,0,0,0,0,0],"split_type":[0,0,0,0,0,0,0,0,0,0,0,0,0,0,0,0,0,0,0,0,0,0,0,0,0,0,0,0,0,0,0],"sum_hessian":[1.5583122E5,1.3930494E5,1.6526281E4,1.2877643E4,1.264273E5,8.702282E3,7.8239985E3,4.4040723E3,8.47357E3,5.4446316E4,7.1980984E4,7.155101E3,1.5471809E3,3.3649487E3,4.45905E3,7.393969E2,3.6646753E3,5.0241055E3,3.449465E3,1.3369793E4,4.1076523E4,5.2529156E4,1.945183E4,1.5473422E3,5.607759E3,2.1360564E2,1.3335753E3,2.0581272E3,1.3068214E3,2.2987314E3,2.1603186E3],"tree_param":{"num_deleted":"0","num_feature":"12","num_nodes":"31","size_leaf_vector":"1"}},{"base_weights":[-1.3586522E-4,-8.282167E-2,6.1658293E-1,-7.353514E-1,-1.9883601E-2,4.4900656E-1,9.646069E-1,-9.268475E-1,-4.8586375E-1,-1.8453422E-1,4.703107E-2,3.3921465E-1,7.8025264E-1,6.509588E-1,1.0326359E0,-5.3092767E-2,-3.6383417E-2,-4.7882844E-2,-1.8834053E-2,-1.5152656E-2,-6.182603E-3,4.7884252E-5,7.5074993E-3,2.07475E-3,2.0381546E-2,3.469896E-2,4.809786E-2,2.1571042E-2,4.4543244E-2,4.887085E-2,5.4206807E-2],"categories":[],"categories_nodes":[],"categories_segments":[],"categories_sizes":[],"default_left":[0,0,0,0,0,0,0,0,0,0,0,0,0,0,0,0,0,0,0,0,0,0,0,0,0,0,0,0,0,0,0],"id":35,"left_children":[1,3,5,7,9,11,13,15,17,19,21,23,25,27,29,-1,-1,-1,-1,-1,-1,-1,-1,-1,-1,-1,-1,-1,-1,-1,-1],"loss_changes":[7.8955244E3,5.607046E3,1.0671143E3,5.7333936E2,1.3719011E3,4.4915112E2,1.2625E2,1.819126E2,2.6839758E2,2.5959766E2,4.2064667E2,1.8906555E2,4.7544434E1,5.5598816E1,1.2836914E1,0E0,0E0,0E0,0E0,0E0,0E0,0E0,0E0,0E0,0E0,0E0,0E0,0E0,0E0,0E0,0E0],"parents":[2147483647,0,0,1,1,2,2,3,3,4,4,5,5,6,6,7,7,8,8,9,9,10,10,11,11,12,12,13,13,14,14],"right_children":[2,4,6,8,10,12,14,16,18,20,22,24,26,28,30,-1,-1,-1,-1,-1,-1,-1,-1,-1,-1,-1,-1,-1,-1,-1,-1],"split_conditions":[5.304519E-1,-7.221665E-1,1.5E0,-1.2E1,-3E0,1.7E1,1E1,-1.3043479E0,-2.178771E0,-3.4416825E-1,5E0,6E0,7.8E1,2.25E0,3.0177515E0,-5.3092767E-2,-3.6383417E-2,-4.7882844E-2,-1.8834053E-2,-1.5152656E-2,-6.182603E-3,4.7884252E-5,7.5074993E-3,2.07475E-3,2.0381546E-2,3.469896E-2,4.809786E-2,2.1571042E-2,4.4543244E-2,4.887085E-2,5.4206807E-2],"split_indices":[7,7,7,4,4,4,4,7,7,7,4,4,2,7,7,0,0,0,0,0,0,0,0,0,0,0,0,0,0,0,0],"split_type":[0,0,0,0,0,0,0,0,0,0,0,0,0,0,0,0,0,0,0,0,0,0,0,0,0,0,0,0,0,0,0],"sum_hessian":[1.5483075E5,1.3652694E5,1.8303812E4,1.2009022E4,1.24517914E5,1.2356397E4,5.9474155E3,6.7925986E3,5.2164243E3,3.5981027E4,8.853688E4,9.281918E3,3.0744788E3,1.0619338E3,4.885482E3,4.0458833E3,2.746715E3,9.7886176E2,4.2375625E3,1.2209297E4,2.377173E4,6.119573E4,2.7341154E4,1.7347217E3,7.547197E3,2.087941E3,9.8653784E2,5.559669E2,5.0596686E2,2.3672634E3,2.5182185E3],"tree_param":{"num_deleted":"0","num_feature":"12","num_nodes":"31","size_leaf_vector":"1"}},{"base_weights":[5.9093465E-4,-1.9623114E-1,2.1237782E-1,-1.1720076E-1,-7.164008E-1,1.3294704E-1,7.8715587E-1,-7.013661E-2,-2.8932086E-1,-4.955487E-1,-1.0334896E0,7.8629866E-2,3.152816E-1,5.3043246E-1,9.864094E-1,-2.948713E-3,-2.4275329E-2,-1.1261216E-2,-3.4258656E-2,-2.2101847E-2,-5.4644186E-2,-4.7763024E-2,-5.407232E-2,2.0307829E-3,6.8371776E-3,4.5564827E-2,1.3115264E-2,2.1422232E-2,4.4023015E-2,3.875468E-2,5.164768E-2],"categories":[],"categories_nodes":[],"categories_segments":[],"categories_sizes":[],"default_left":[0,0,0,0,0,0,0,0,0,0,0,0,0,0,0,0,0,0,0,0,0,0,0,0,0,0,0,0,0,0,0],"id":36,"left_children":[1,3,5,7,9,11,13,15,17,19,21,23,25,27,29,-1,-1,-1,-1,-1,-1,-1,-1,-1,-1,-1,-1,-1,-1,-1,-1],"loss_changes":[6.4179307E3,3.2805095E3,3.3858184E3,5.6117737E2,7.365596E2,6.453113E2,4.600747E2,2.5221332E2,3.7727283E2,1.9788672E2,1.5174805E1,1.1090555E2,4.7197253E2,1.4016394E2,4.9050293E1,0E0,0E0,0E0,0E0,0E0,0E0,0E0,0E0,0E0,0E0,0E0,0E0,0E0,0E0,0E0,0E0],"parents":[2147483647,0,0,1,1,2,2,3,3,4,4,5,5,6,6,7,7,8,8,9,9,10,10,11,11,12,12,13,13,14,14],"right_children":[2,4,6,8,10,12,14,16,18,20,22,24,26,28,30,-1,-1,-1,-1,-1,-1,-1,-1,-1,-1,-1,-1,-1,-1,-1,-1],"split_conditions":[1E0,1.3E1,1.5E1,8E0,8.6E1,9E0,7.8E1,1.11E2,9.4E1,2.4E1,1.8E1,5E0,4.51E2,2.1E1,1.7E1,-2.948713E-3,-2.4275329E-2,-1.1261216E-2,-3.4258656E-2,-2.2101847E-2,-5.4644186E-2,-4.7763024E-2,-5.407232E-2,2.0307829E-3,6.8371776E-3,4.5564827E-2,1.3115264E-2,2.1422232E-2,4.4023015E-2,3.875468E-2,5.164768E-2],"split_indices":[8,5,5,5,3,5,2,3,3,5,5,5,1,5,5,0,0,0,0,0,0,0,0,0,0,0,0,0,0,0,0],"split_type":[0,0,0,0,0,0,0,0,0,0,0,0,0,0,0,0,0,0,0,0,0,0,0,0,0,0,0,0,0,0,0],"sum_hessian":[1.5396303E5,7.980091E4,7.4162125E4,6.927678E4,1.052413E4,6.515881E4,9.003313E3,5.440249E4,1.4874294E4,6.20495E3,4.31918E3,5.020442E4,1.4954388E4,3.9358826E3,5.067431E3,5.2979887E4,1.4226002E3,1.2802824E4,2.071469E3,5.6963843E3,5.0856583E2,1.6494475E3,2.6697324E3,3.0351883E4,1.985254E4,1.2193848E3,1.3735003E4,3.0495554E3,8.8632715E2,9.17866E2,4.149565E3],"tree_param":{"num_deleted":"0","num_feature":"12","num_nodes":"31","size_leaf_vector":"1"}},{"base_weights":[-5.258619E-4,-7.12776E-2,6.317575E-1,-7.0211756E-1,-1.4325546E-2,4.6304464E-1,9.611211E-1,-4.493286E-1,-9.0421987E-1,-1.6943693E-1,4.3475825E-2,3.0827072E-1,7.375175E-1,6.6962403E-1,1.0244142E0,-4.641824E-2,-1.717453E-2,-5.215871E-2,-3.527554E-2,-6.1811856E-3,-1.4406517E-2,1.2209298E-4,7.682275E-3,3.3039765E-3,2.026383E-2,3.1016383E-2,4.4668425E-2,2.256842E-2,4.3390434E-2,4.835692E-2,5.3664517E-2],"categories":[],"categories_nodes":[],"categories_segments":[],"categories_sizes":[],"default_left":[0,0,0,0,0,0,0,0,0,0,0,0,0,0,0,0,0,0,0,0,0,0,0,0,0,0,0,0,0,0,0],"id":37,"left_children":[1,3,5,7,9,11,13,15,17,19,21,23,25,27,29,-1,-1,-1,-1,-1,-1,-1,-1,-1,-1,-1,-1,-1,-1,-1,-1],"loss_changes":[6.847192E3,4.9456807E3,8.555029E2,5.819375E2,1.1320055E3,4.325681E2,9.556201E1,2.565396E2,1.7413672E2,1.8635333E2,4.158291E2,1.5306396E2,6.652539E1,3.9988068E1,1.095459E1,0E0,0E0,0E0,0E0,0E0,0E0,0E0,0E0,0E0,0E0,0E0,0E0,0E0,0E0,0E0,0E0],"parents":[2147483647,0,0,1,1,2,2,3,3,4,4,5,5,6,6,7,7,8,8,9,9,10,10,11,11,12,12,13,13,14,14],"right_children":[2,4,6,8,10,12,14,16,18,20,22,24,26,28,30,-1,-1,-1,-1,-1,-1,-1,-1,-1,-1,-1,-1,-1,-1,-1,-1],"split_conditions":[5.983681E-1,-7.221665E-1,1.5789474E0,1.3E1,-1.3392857E-1,1.5E1,1E1,-2.178771E0,-1.3043479E0,1E1,1.9543974E-1,7E0,2E1,2.25E0,3.0177515E0,-4.641824E-2,-1.717453E-2,-5.215871E-2,-3.527554E-2,-6.1811856E-3,-1.4406517E-2,1.2209298E-4,7.682275E-3,3.3039765E-3,2.026383E-2,3.1016383E-2,4.4668425E-2,2.256842E-2,4.3390434E-2,4.835692E-2,5.3664517E-2],"split_indices":[7,7,7,5,7,5,5,7,7,5,7,5,5,7,7,0,0,0,0,0,0,0,0,0,0,0,0,0,0,0,0],"split_type":[0,0,0,0,0,0,0,0,0,0,0,0,0,0,0,0,0,0,0,0,0,0,0,0,0,0,0,0,0,0,0],"sum_hessian":[1.5305867E5,1.3765602E5,1.5402653E4,1.1397556E4,1.2625846E5,1.0186921E4,5.2157324E3,5.065219E3,6.3323364E3,3.427601E4,9.1982445E4,6.5151704E3,3.6717502E3,9.3253046E2,4.2832017E3,9.1518854E2,4.150031E3,3.7239695E3,2.608367E3,2.473201E4,9.544005E3,6.70208E4,2.4961646E4,1.8637335E3,4.651437E3,2.0986677E3,1.5730824E3,4.453527E2,4.871778E2,1.9817135E3,2.3014883E3],"tree_param":{"num_deleted":"0","num_feature":"12","num_nodes":"31","size_leaf_vector":"1"}},{"base_weights":[-2.4559995E-4,-6.771555E-2,6.161315E-1,-7.180269E-1,-1.5689654E-2,4.4156215E-1,9.354032E-1,-9.1468614E-1,-4.6239427E-1,-1.8608795E-1,3.8051892E-2,2.9500625E-1,7.0816875E-1,6.0064715E-1,1.0131687E0,-5.196569E-2,-3.5471182E-2,-4.5593604E-2,-1.7463794E-2,-1.5282111E-2,-6.4081512E-3,-2.4998767E-4,6.9111437E-3,3.4954536E-3,1.9306328E-2,2.99088E-2,4.309853E-2,1.913934E-2,4.2501833E-2,4.7743317E-2,5.34122E-2],"categories":[],"categories_nodes":[],"categories_segments":[],"categories_sizes":[],"default_left":[0,0,0,0,0,0,0,0,0,0,0,0,0,0,0,0,0,0,0,0,0,0,0,0,0,0,0,0,0,0,0],"id":38,"left_children":[1,3,5,7,9,11,13,15,17,19,21,23,25,27,29,-1,-1,-1,-1,-1,-1,-1,-1,-1,-1,-1,-1,-1,-1,-1,-1],"loss_changes":[6.332655E3,4.6436157E3,8.369404E2,5.1069385E2,1.1637875E3,3.7937927E2,1.3762207E2,1.4623486E2,2.2454816E2,2.1097888E2,4.1665625E2,1.285882E2,5.7769287E1,5.4193695E1,1.2811035E1,0E0,0E0,0E0,0E0,0E0,0E0,0E0,0E0,0E0,0E0,0E0,0E0,0E0,0E0,0E0,0E0],"parents":[2147483647,0,0,1,1,2,2,3,3,4,4,5,5,6,6,7,7,8,8,9,9,10,10,11,11,12,12,13,13,14,14],"right_children":[2,4,6,8,10,12,14,16,18,20,22,24,26,28,30,-1,-1,-1,-1,-1,-1,-1,-1,-1,-1,-1,-1,-1,-1,-1,-1],"split_conditions":[5.983681E-1,-7.828089E-1,1.5E0,-1.2E1,-4E0,1.5E1,1E1,-1.3043479E0,-2.178771E0,-3.888889E-1,5E0,7E0,2E1,2.25E0,3.0177515E0,-5.196569E-2,-3.5471182E-2,-4.5593604E-2,-1.7463794E-2,-1.5282111E-2,-6.4081512E-3,-2.4998767E-4,6.9111437E-3,3.4954536E-3,1.9306328E-2,2.99088E-2,4.309853E-2,1.913934E-2,4.2501833E-2,4.7743317E-2,5.34122E-2],"split_indices":[7,7,7,4,4,4,4,7,7,7,4,4,4,7,7,0,0,0,0,0,0,0,0,0,0,0,0,0,0,0,0],"split_type":[0,0,0,0,0,0,0,0,0,0,0,0,0,0,0,0,0,0,0,0,0,0,0,0,0,0,0,0,0,0,0],"sum_hessian":[1.5227312E5,1.3725031E5,1.502282E4,1.016592E4,1.2708439E5,9.713899E3,5.3089204E3,5.744259E3,4.4216606E3,3.047017E4,9.661422E4,6.26957E3,3.4443296E3,1.0024421E3,4.3064785E3,3.5716333E3,2.1726252E3,8.876214E2,3.5340393E3,9.943334E3,2.0526836E4,6.7573375E4,2.9040846E4,1.8071302E3,4.46244E3,2.0110205E3,1.4333091E3,5.363954E2,4.660467E2,2.1008606E3,2.205618E3],"tree_param":{"num_deleted":"0","num_feature":"12","num_nodes":"31","size_leaf_vector":"1"}},{"base_weights":[9.735317E-5,-5.8486223E-2,6.5977275E-1,-6.72371E-1,-6.682966E-3,4.4101307E-1,8.927118E-1,-4.2532378E-1,-8.778584E-1,-9.163113E-2,8.852572E-2,3.3226663E-1,8.607933E-1,7.021642E-1,1.0161833E0,-4.503999E-2,-1.6239207E-2,-5.149222E-2,-3.33672E-2,-2.9048955E-3,-1.2176144E-2,2.5236742E-3,1.1132052E-2,4.388292E-3,2.192598E-2,2.246788E-2,4.659928E-2,3.2138668E-2,5.1556297E-2,4.836805E-2,5.344816E-2],"categories":[],"categories_nodes":[],"categories_segments":[],"categories_sizes":[],"default_left":[0,0,0,0,0,0,0,0,0,0,0,0,0,0,0,0,0,0,0,0,0,0,0,0,0,0,0,0,0,0,0],"id":39,"left_children":[1,3,5,7,9,11,13,15,17,19,21,23,25,27,29,-1,-1,-1,-1,-1,-1,-1,-1,-1,-1,-1,-1,-1,-1,-1,-1],"loss_changes":[5.850039E3,4.4212524E3,6.2875977E2,5.488545E2,1.0369441E3,2.904591E2,1.3994482E2,2.3464838E2,1.8825635E2,3.4509747E2,3.0851123E2,1.3142096E2,3.794751E1,4.5327637E1,8.30835E0,0E0,0E0,0E0,0E0,0E0,0E0,0E0,0E0,0E0,0E0,0E0,0E0,0E0,0E0,0E0,0E0],"parents":[2147483647,0,0,1,1,2,2,3,3,4,4,5,5,6,6,7,7,8,8,9,9,10,10,11,11,12,12,13,13,14,14],"right_children":[2,4,6,8,10,12,14,16,18,20,22,24,26,28,30,-1,-1,-1,-1,-1,-1,-1,-1,-1,-1,-1,-1,-1,-1,-1,-1],"split_conditions":[6.9970846E-1,-7.221665E-1,1.5E1,1.3E1,1E0,1.8687431E0,1.2949641E0,-2.178771E0,-1.3043479E0,9E0,9E0,7E0,6E0,2.4E1,3.0177515E0,-4.503999E-2,-1.6239207E-2,-5.149222E-2,-3.33672E-2,-2.9048955E-3,-1.2176144E-2,2.5236742E-3,1.1132052E-2,4.388292E-3,2.192598E-2,2.246788E-2,4.659928E-2,3.2138668E-2,5.1556297E-2,4.836805E-2,5.344816E-2],"split_indices":[7,7,5,5,8,7,7,7,7,5,5,5,5,5,7,0,0,0,0,0,0,0,0,0,0,0,0,0,0,0,0],"split_type":[0,0,0,0,0,0,0,0,0,0,0,0,0,0,0,0,0,0,0,0,0,0,0,0,0,0,0,0,0,0,0],"sum_hessian":[1.5137245E5,1.3902686E5,1.23456E4,1.0818015E4,1.28208836E5,6.368063E3,5.977537E3,4.91365E3,5.904365E3,6.775539E4,6.045344E4,5.059232E3,1.308831E3,2.3529802E3,3.624557E3,8.562555E2,4.0573943E3,3.4265735E3,2.477792E3,5.5503285E4,1.2252107E4,4.709318E4,1.3360264E4,1.5331337E3,3.5260981E3,1.9414381E2,1.1146873E3,1.9956405E3,3.5733975E2,1.8929152E3,1.7316417E3],"tree_param":{"num_deleted":"0","num_feature":"12","num_nodes":"31","size_leaf_vector":"1"}},{"base_weights":[1.0941445E-3,-6.009596E-2,5.8339185E-1,-7.017608E-1,-1.37091195E-2,4.0985328E-1,9.161587E-1,-3.8807872E-1,-8.7374896E-1,-1.5716791E-1,4.1627303E-2,2.6651412E-1,6.8045443E-1,5.784077E-1,9.9788797E-1,-4.394866E-2,-1.4603729E-2,-5.2662965E-2,-3.652486E-2,-5.8470373E-3,-1.5018317E-2,2.9260092E-4,6.9233775E-3,2.364479E-3,1.7834267E-2,2.8623885E-2,4.1762542E-2,1.8223915E-2,4.170467E-2,4.6691068E-2,5.2965768E-2],"categories":[],"categories_nodes":[],"categories_segments":[],"categories_sizes":[],"default_left":[0,0,0,0,0,0,0,0,0,0,0,0,0,0,0,0,0,0,0,0,0,0,0,0,0,0,0,0,0,0,0],"id":40,"left_children":[1,3,5,7,9,11,13,15,17,19,21,23,25,27,29,-1,-1,-1,-1,-1,-1,-1,-1,-1,-1,-1,-1,-1,-1,-1,-1],"loss_changes":[5.3656724E3,4.0560635E3,8.265659E2,4.9529785E2,1.00886816E3,3.6494592E2,1.3488672E2,1.5315222E2,1.5179541E2,2.0374365E2,3.1772852E2,1.21661804E2,5.3994995E1,5.2125153E1,1.4555176E1,0E0,0E0,0E0,0E0,0E0,0E0,0E0,0E0,0E0,0E0,0E0,0E0,0E0,0E0,0E0,0E0],"parents":[2147483647,0,0,1,1,2,2,3,3,4,4,5,5,6,6,7,7,8,8,9,9,10,10,11,11,12,12,13,13,14,14],"right_children":[2,4,6,8,10,12,14,16,18,20,22,24,26,28,30,-1,-1,-1,-1,-1,-1,-1,-1,-1,-1,-1,-1,-1,-1,-1,-1],"split_conditions":[5.983681E-1,-8.1678957E-1,1.5E0,1.1E1,-1.3392857E-1,1.5E1,1E1,-2.3622048E0,-1.8848168E0,1.1E1,1.9543974E-1,7E0,2E1,2.25E0,3.0177515E0,-4.394866E-2,-1.4603729E-2,-5.2662965E-2,-3.652486E-2,-5.8470373E-3,-1.5018317E-2,2.9260092E-4,6.9233775E-3,2.364479E-3,1.7834267E-2,2.8623885E-2,4.1762542E-2,1.8223915E-2,4.170467E-2,4.6691068E-2,5.2965768E-2],"split_indices":[7,7,7,5,7,5,5,7,7,5,7,5,5,7,7,0,0,0,0,0,0,0,0,0,0,0,0,0,0,0,0],"split_type":[0,0,0,0,0,0,0,0,0,0,0,0,0,0,0,0,0,0,0,0,0,0,0,0,0,0,0,0,0,0,0],"sum_hessian":[1.5058862E5,1.3626977E5,1.4318858E4,9.186036E3,1.2708373E5,9.41247E3,4.906389E3,3.2541616E3,5.931875E3,3.537438E4,9.170935E4,6.154419E3,3.2580503E3,9.5750793E2,3.9488813E3,5.309775E2,2.723184E3,2.629931E3,3.301944E3,2.761782E4,7.7565557E3,6.696998E4,2.4739375E4,1.7941058E3,4.3603135E3,1.922045E3,1.3360054E3,5.226434E2,4.3486453E2,1.9408475E3,2.0080338E3],"tree_param":{"num_deleted":"0","num_feature":"12","num_nodes":"31","size_leaf_vector":"1"}},{"base_weights":[-5.630412E-4,-5.4957423E-2,6.1621016E-1,-6.398177E-1,-7.6949657E-3,3.9823037E-1,8.664932E-1,-9.7179776E-1,-4.8358727E-1,-1.4258285E-1,4.420008E-2,2.971947E-1,8.369065E-1,6.710386E-1,1.0035878E0,-5.156373E-2,-2.7883096E-2,-3.6644578E-2,-1.523302E-2,-1.3345587E-2,-4.889248E-3,6.548091E-4,7.993112E-3,1.3588718E-3,1.900152E-2,2.3134902E-2,4.5203358E-2,3.0667296E-2,5.0558057E-2,4.7550503E-2,5.306211E-2],"categories":[],"categories_nodes":[],"categories_segments":[],"categories_sizes":[],"default_left":[0,0,0,0,0,0,0,0,0,0,0,0,0,0,0,0,0,0,0,0,0,0,0,0,0,0,0,0,0,0,0],"id":41,"left_children":[1,3,5,7,9,11,13,15,17,19,21,23,25,27,29,-1,-1,-1,-1,-1,-1,-1,-1,-1,-1,-1,-1,-1,-1,-1,-1],"loss_changes":[5.0281987E3,3.8071084E3,6.623345E2,5.3362646E2,8.920383E2,2.8758423E2,1.508164E2,8.056958E1,3.1222327E2,1.9717218E2,3.3107336E2,1.18086975E2,3.0121521E1,4.5172974E1,9.057373E0,0E0,0E0,0E0,0E0,0E0,0E0,0E0,0E0,0E0,0E0,0E0,0E0,0E0,0E0,0E0,0E0],"parents":[2147483647,0,0,1,1,2,2,3,3,4,4,5,5,6,6,7,7,8,8,9,9,10,10,11,11,12,12,13,13,14,14],"right_children":[2,4,6,8,10,12,14,16,18,20,22,24,26,28,30,-1,-1,-1,-1,-1,-1,-1,-1,-1,-1,-1,-1,-1,-1,-1,-1],"split_conditions":[6.779661E-1,-7.221665E-1,1.5E1,-1.8848168E0,-3E0,1.8687431E0,1.2949641E0,-7E0,-1.3E1,-3.888889E-1,2.615519E-1,6E0,6E0,2.4E1,3.0177515E0,-5.156373E-2,-2.7883096E-2,-3.6644578E-2,-1.523302E-2,-1.3345587E-2,-4.889248E-3,6.548091E-4,7.993112E-3,1.3588718E-3,1.900152E-2,2.3134902E-2,4.5203358E-2,3.0667296E-2,5.0558057E-2,4.7550503E-2,5.306211E-2],"split_indices":[7,7,4,7,4,7,7,4,4,7,7,4,4,4,7,0,0,0,0,0,0,0,0,0,0,0,0,0,0,0,0],"split_type":[0,0,0,0,0,0,0,0,0,0,0,0,0,0,0,0,0,0,0,0,0,0,0,0,0,0,0,0,0,0,0],"sum_hessian":[1.4987428E5,1.3772864E5,1.2145636E4,1.0296736E4,1.2743191E5,6.4931387E3,5.652497E3,3.2933503E3,7.0033857E3,3.5404703E4,9.20272E4,5.2789663E3,1.214172E3,2.3326921E3,3.3198047E3,2.8784648E3,4.1488556E2,2.9249153E3,4.0784705E3,9.376599E3,2.6028102E4,7.25249E4,1.9502305E4,1.2396013E3,4.0393652E3,1.859543E2,1.0282177E3,1.9967927E3,3.3589944E2,1.7454982E3,1.5743065E3],"tree_param":{"num_deleted":"0","num_feature":"12","num_nodes":"31","size_leaf_vector":"1"}},{"base_weights":[1.0049156E-3,-5.090623E-2,6.019422E-1,-6.7668784E-1,-8.514325E-3,3.856266E-1,8.552911E-1,-8.497186E-1,-3.731256E-1,-8.397526E-2,8.043334E-2,2.8699955E-1,8.222414E-1,6.549313E-1,9.986571E-1,-5.20774E-2,-3.5107344E-2,-4.2663623E-2,-1.41247725E-2,-1.0208242E-2,-2.3330387E-3,2.6795885E-3,1.0669119E-2,3.1160812E-3,1.9338142E-2,2.129249E-2,4.4701327E-2,2.9791301E-2,5.0460953E-2,4.7263972E-2,5.2869525E-2],"categories":[],"categories_nodes":[],"categories_segments":[],"categories_sizes":[],"default_left":[0,0,0,0,0,0,0,0,0,0,0,0,0,0,0,0,0,0,0,0,0,0,0,0,0,0,0,0,0,0,0],"id":42,"left_children":[1,3,5,7,9,11,13,15,17,19,21,23,25,27,29,-1,-1,-1,-1,-1,-1,-1,-1,-1,-1,-1,-1,-1,-1,-1,-1],"loss_changes":[4.650292E3,3.640092E3,6.4926953E2,4.5695117E2,8.6258997E2,2.7517957E2,1.5614014E2,1.5621753E2,1.3737454E2,3.1180875E2,2.1048203E2,1.16953094E2,3.31391E1,4.713446E1,8.969482E0,0E0,0E0,0E0,0E0,0E0,0E0,0E0,0E0,0E0,0E0,0E0,0E0,0E0,0E0,0E0,0E0],"parents":[2147483647,0,0,1,1,2,2,3,3,4,4,5,5,6,6,7,7,8,8,9,9,10,10,11,11,12,12,13,13,14,14],"right_children":[2,4,6,8,10,12,14,16,18,20,22,24,26,28,30,-1,-1,-1,-1,-1,-1,-1,-1,-1,-1,-1,-1,-1,-1,-1,-1],"split_conditions":[6.779661E-1,-8.1678957E-1,1.5E1,-1E1,2.20022E-2,1.8687431E0,1.2949641E0,-1.8848168E0,-2.3622048E0,-7E0,1E1,7E0,6E0,2.4E1,3.0177515E0,-5.20774E-2,-3.5107344E-2,-4.2663623E-2,-1.41247725E-2,-1.0208242E-2,-2.3330387E-3,2.6795885E-3,1.0669119E-2,3.1160812E-3,1.9338142E-2,2.129249E-2,4.4701327E-2,2.9791301E-2,5.0460953E-2,4.7263972E-2,5.2869525E-2],"split_indices":[7,7,4,4,7,7,7,7,7,4,4,4,4,4,7,0,0,0,0,0,0,0,0,0,0,0,0,0,0,0,0],"split_type":[0,0,0,0,0,0,0,0,0,0,0,0,0,0,0,0,0,0,0,0,0,0,0,0,0,0,0,0,0,0,0],"sum_hessian":[1.490681E5,1.3721581E5,1.1852285E4,8.704633E3,1.2851117E5,6.394784E3,5.457501E3,5.543203E3,3.1614297E3,6.952662E4,5.898456E4,5.2177925E3,1.1769916E3,2.278614E3,3.1788872E3,2.407552E3,3.135651E3,5.0064792E2,2.6607817E3,1.6470582E4,5.305603E4,4.9077523E4,9.907037E3,1.6049324E3,3.6128604E3,1.8152997E2,9.954616E2,1.9551251E3,3.234888E2,1.6743278E3,1.5045594E3],"tree_param":{"num_deleted":"0","num_feature":"12","num_nodes":"31","size_leaf_vector":"1"}},{"base_weights":[6.1764775E-5,-5.533162E-2,4.8729888E-1,-6.050511E-1,-1.5929041E-2,3.3691543E-1,9.0093046E-1,-3.867015E-1,-9.799348E-1,-1.423596E-1,3.483253E-2,2.5729853E-1,7.4807024E-1,7.3321855E-1,1.0213802E0,-5.2540626E-2,-1.671785E-2,-5.222059E-2,-4.3943953E-2,-6.290889E-3,-3.5441987E-2,3.1400076E-4,6.6987523E-3,7.935507E-3,1.6599549E-2,-2.4142666E-2,3.8456064E-2,2.1499285E-2,4.2077083E-2,4.8591983E-2,5.3064894E-2],"categories":[],"categories_nodes":[],"categories_segments":[],"categories_sizes":[],"default_left":[0,0,0,0,0,0,0,0,0,0,0,0,0,0,0,0,0,0,0,0,0,0,0,0,0,0,0,0,0,0,0],"id":43,"left_children":[1,3,5,7,9,11,13,15,17,19,21,23,25,27,29,-1,-1,-1,-1,-1,-1,-1,-1,-1,-1,-1,-1,-1,-1,-1,-1],"loss_changes":[4.0056196E3,2.8865024E3,9.42105E2,7.2920435E2,7.9806244E2,3.6357275E2,8.084155E1,1.9550427E2,2.045337E1,3.3372748E2,2.5116635E2,6.851349E1,4.7071106E1,5.5209167E1,3.6120605E0,0E0,0E0,0E0,0E0,0E0,0E0,0E0,0E0,0E0,0E0,0E0,0E0,0E0,0E0,0E0,0E0],"parents":[2147483647,0,0,1,1,2,2,3,3,4,4,5,5,6,6,7,7,8,8,9,9,10,10,11,11,12,12,13,13,14,14],"right_children":[2,4,6,8,10,12,14,16,18,20,22,24,26,28,30,-1,-1,-1,-1,-1,-1,-1,-1,-1,-1,-1,-1,-1,-1,-1,-1],"split_conditions":[1.1E1,-1.2E1,9.1E1,8.6E1,-3E0,1.9E1,1.7E1,-2.3E1,-1.7E1,1.11E2,6E0,5.1E1,2.8E1,9.7E1,2.3E1,-5.2540626E-2,-1.671785E-2,-5.222059E-2,-4.3943953E-2,-6.290889E-3,-3.5441987E-2,3.1400076E-4,6.6987523E-3,7.935507E-3,1.6599549E-2,-2.4142666E-2,3.8456064E-2,2.1499285E-2,4.2077083E-2,4.8591983E-2,5.3064894E-2],"split_indices":[4,4,2,3,4,4,4,4,4,3,4,2,2,2,4,0,0,0,0,0,0,0,0,0,0,0,0,0,0,0,0],"split_type":[0,0,0,0,0,0,0,0,0,0,0,0,0,0,0,0,0,0,0,0,0,0,0,0,0,0,0,0,0,0,0],"sum_hessian":[1.4841083E5,1.3326139E5,1.51494375E4,8.912036E3,1.2434935E5,1.1111471E4,4.0379666E3,5.6330938E3,3.2789424E3,3.5622785E4,8.872657E4,9.310241E3,1.8012292E3,1.6908066E3,2.34716E3,4.101624E2,5.222931E3,1.9960565E3,1.282886E3,3.461326E4,1.00952185E3,6.88882E4,1.983837E4,4.0145122E3,5.2957295E3,2.991743E1,1.7713118E3,4.463347E2,1.2444719E3,1.0586499E3,1.28851E3],"tree_param":{"num_deleted":"0","num_feature":"12","num_nodes":"31","size_leaf_vector":"1"}},{"base_weights":[-1.1491623E-4,-5.2604288E-2,4.6966526E-1,-5.9133905E-1,-1.4863953E-2,3.2030672E-1,8.9172643E-1,-3.7728783E-1,-9.689671E-1,-1.522751E-1,2.7277458E-2,2.4254628E-1,7.30483E-1,6.7499083E-1,9.9043685E-1,-5.2147735E-2,-1.6314058E-2,-4.362159E-2,-5.207729E-2,-6.731874E-3,-3.7183415E-2,-5.491968E-4,5.0695566E-3,7.510412E-3,1.564744E-2,3.0795634E-2,4.902462E-2,1.743159E-2,4.0156137E-2,4.3588385E-2,5.124194E-2],"categories":[],"categories_nodes":[],"categories_segments":[],"categories_sizes":[],"default_left":[0,0,0,0,0,0,0,0,0,0,0,0,0,0,0,0,0,0,0,0,0,0,0,0,0,0,0,0,0,0,0],"id":44,"left_children":[1,3,5,7,9,11,13,15,17,19,21,23,25,27,29,-1,-1,-1,-1,-1,-1,-1,-1,-1,-1,-1,-1,-1,-1,-1,-1],"loss_changes":[3.6428535E3,2.701811E3,9.3567554E2,7.0283887E2,7.1912976E2,3.496582E2,8.2346924E1,1.8823718E2,2.1137451E1,3.039253E2,2.695063E2,5.9901794E1,4.9449585E1,5.0627014E1,9.981934E0,0E0,0E0,0E0,0E0,0E0,0E0,0E0,0E0,0E0,0E0,0E0,0E0,0E0,0E0,0E0,0E0],"parents":[2147483647,0,0,1,1,2,2,3,3,4,4,5,5,6,6,7,7,8,8,9,9,10,10,11,11,12,12,13,13,14,14],"right_children":[2,4,6,8,10,12,14,16,18,20,22,24,26,28,30,-1,-1,-1,-1,-1,-1,-1,-1,-1,-1,-1,-1,-1,-1,-1,-1],"split_conditions":[1.1E1,-1.2E1,9.1E1,8.6E1,-4E0,1.9E1,1.5E1,-2.3E1,1.02E2,1.11E2,4E0,5.1E1,2.4E1,9.7E1,1.8E1,-5.2147735E-2,-1.6314058E-2,-4.362159E-2,-5.207729E-2,-6.731874E-3,-3.7183415E-2,-5.491968E-4,5.0695566E-3,7.510412E-3,1.564744E-2,3.0795634E-2,4.902462E-2,1.743159E-2,4.0156137E-2,4.3588385E-2,5.124194E-2],"split_indices":[4,4,2,3,4,4,4,4,3,3,4,2,4,2,4,0,0,0,0,0,0,0,0,0,0,0,0,0,0,0,0],"split_type":[0,0,0,0,0,0,0,0,0,0,0,0,0,0,0,0,0,0,0,0,0,0,0,0,0,0,0,0,0,0,0],"sum_hessian":[1.4773038E5,1.328839E5,1.4846467E4,8.698605E3,1.24185305E5,1.0967174E4,3.8792927E3,5.552995E3,3.14561E3,2.9145973E4,9.5039336E4,9.220719E3,1.7464552E3,1.2163741E3,2.6629185E3,3.9383066E2,5.1591646E3,1.3555894E3,1.7900209E3,2.8303092E4,8.428798E2,6.268096E4,3.2358373E4,3.990293E3,5.230426E3,1.2000012E3,5.46454E2,3.43974E2,8.724001E2,6.0439844E2,2.05852E3],"tree_param":{"num_deleted":"0","num_feature":"12","num_nodes":"31","size_leaf_vector":"1"}},{"base_weights":[-7.233911E-4,-4.528133E-2,5.687851E-1,-6.320325E-1,-8.251962E-3,3.9887506E-1,8.967994E-1,-8.094907E-1,-3.4050933E-1,-9.133356E-2,5.4162595E-2,2.4973692E-1,6.644946E-1,2.8862393E-1,9.410228E-1,-5.138373E-2,-3.2470234E-2,-4.2880133E-2,-1.3112369E-2,-9.935512E-3,-2.78401E-3,1.4550721E-3,8.535294E-3,2.2740643E-3,1.7140366E-2,2.9749557E-2,4.806149E-2,7.6524555E-3,4.6082024E-2,4.2044364E-2,5.1471926E-2],"categories":[],"categories_nodes":[],"categories_segments":[],"categories_sizes":[],"default_left":[0,0,0,0,0,0,0,0,0,0,0,0,0,0,0,0,0,0,0,0,0,0,0,0,0,0,0,0,0,0,0],"id":45,"left_children":[1,3,5,7,9,11,13,15,17,19,21,23,25,27,29,-1,-1,-1,-1,-1,-1,-1,-1,-1,-1,-1,-1,-1,-1,-1,-1],"loss_changes":[3.732704E3,2.96403E3,5.945095E2,4.1867798E2,6.654304E2,2.7844458E2,9.766577E1,1.7513623E2,1.2385498E2,2.1073349E2,2.1401488E2,8.563974E1,5.1573242E1,2.1166424E1,2.9184326E1,0E0,0E0,0E0,0E0,0E0,0E0,0E0,0E0,0E0,0E0,0E0,0E0,0E0,0E0,0E0,0E0],"parents":[2147483647,0,0,1,1,2,2,3,3,4,4,5,5,6,6,7,7,8,8,9,9,10,10,11,11,12,12,13,13,14,14],"right_children":[2,4,6,8,10,12,14,16,18,20,22,24,26,28,30,-1,-1,-1,-1,-1,-1,-1,-1,-1,-1,-1,-1,-1,-1,-1,-1],"split_conditions":[6.9970846E-1,-8.1678957E-1,1.6666666E0,-1E1,-2.8449502E-2,1.5E1,6E0,-1.8848168E0,-2.5714285E0,-3.4416825E-1,9E0,7E0,2.4E1,1.21E2,3.0177515E0,-5.138373E-2,-3.2470234E-2,-4.2880133E-2,-1.3112369E-2,-9.935512E-3,-2.78401E-3,1.4550721E-3,8.535294E-3,2.2740643E-3,1.7140366E-2,2.9749557E-2,4.806149E-2,7.6524555E-3,4.6082024E-2,4.2044364E-2,5.1471926E-2],"split_indices":[7,7,7,4,7,4,4,7,7,7,4,4,4,2,7,0,0,0,0,0,0,0,0,0,0,0,0,0,0,0,0],